svm_type c_svc
kernel_type rbf
gamma 0.5
nr_class 2
total_sv 171
rho -0.797381
label 0 1
nr_sv 105 66
SV
0.5 1:-0.857024 2:0.598823 3:-0.833966 4:-0.74413 5:-0.915904 6:-0.989916 7:-0.993668 8:-0.99319 9:-0.993989 10:-0.986236 11:-0.996684 12:-0.993698 13:-0.996715 14:-0.991612 15:-0.991249 16:-0.977002 17:-0.923175 18:-0.919608 19:-0.92442 20:-0.904095 21:-0.869671 22:-0.898116 23:-0.865499 24:-0.856781 25:-0.832978 26:-0.848288 27:-0.772628 28:-0.700472 29:-0.56568 30:-0.428776 31:0.294097 32:-0.441401 
0.130499151490365 1:-0.342057 2:-0.910136 3:-0.9352 4:-0.834514 5:-0.676596 6:-0.869848 7:-0.914439 8:-1 9:-1 10:-1 11:-1 12:-1 13:-1 14:-1 15:-0.966827 16:-0.135401 17:-0.834211 18:-0.34669 19:-0.504793 20:-0.713041 21:-0.548608 22:-0.388971 23:-0.687231 24:-0.975099 25:-0.991177 26:-0.997701 27:-0.999177 28:-0.999417 29:-0.999454 30:-0.999891 31:-0.999671 32:-1 
0.5 1:-0.14852 2:-0.988661 3:-0.9959 4:-0.998591 5:-1 6:-1 7:-1 8:-1 9:-1 10:-1 11:-0.999526 12:-0.999839 13:-0.989451 14:-0.95666 15:-0.948649 16:0.239094 17:-0.99923 18:-0.989449 19:-0.967065 20:-0.933538 21:-0.900129 22:-0.890253 23:-0.865909 24:-0.875565 25:-0.873879 26:-0.904964 27:-0.779821 28:-0.466225 29:0.7536 30:-0.098772 31:-0.840642 32:-0.987637 
0.1233033111217291 1:-0.964772 2:-1 3:-1 4:-1 5:-1 6:-1 7:-1 8:-1 9:-1 10:-1 11:-0.986227 12:-0.604368 13:-0.0372362 14:0.727926 15:-0.316258 16:-0.877764 17:-0.818417 18:0.788551 19:-0.950946 20:-0.992765 21:-0.996294 22:-1 23:-1 24:-1 25:-1 26:-1 27:-1 28:-1 29:-1 30:-1 31:-1 32:-1 
0.05471813677017105 1:0.626978 2:-0.474323 3:-0.985 4:-0.988173 5:-0.996963 6:-1 7:-1 8:-1 9:-1 10:-1 11:-1 12:-1 13:-1 14:-1 15:-1 16:-1 17:-1 18:-1 19:-1 20:-0.997586 21:-0.968403 22:-0.943256 23:-0.82304 24:-0.215689 25:0.385467 26:0.415544 27:-0.356927 28:-0.87018 29:-0.986227 30:-0.996485 31:-0.998139 32:-0.998972 
0.02414039227483644 1:-1 2:-0.0563869 3:0.180934 4:-0.999572 5:-1 6:-1 7:-1 8:-1 9:-1 10:-1 11:-1 12:-1 13:-0.998674 14:-1 15:-0.990514 16:-1 17:0.237619 18:-0.186895 19:-0.992096 20:-0.997589 21:-0.998964 22:-0.999505 23:-0.999846 24:-1 25:-0.999753 26:-1 27:-0.999907 28:-1 29:-1 30:-1 31:-1 32:-1 
0.2352863819674574 1:-0.879022 2:-0.929565 3:-0.9758 4:-0.956151 5:-0.979351 6:-0.984522 7:-0.977003 8:-0.991246 9:-0.991189 10:-0.973209 11:-0.945308 12:-0.0746758 13:0.0986722 14:-0.839551 15:-0.898153 16:-0.907716 17:-0.725907 18:-0.909614 19:-0.922409 20:-0.911606 21:-0.875018 22:-0.915653 23:-0.815959 24:0.0102475 25:0.166198 26:-0.42983 27:-0.598108 28:-0.933041 29:-0.984122 30:-0.992364 31:-0.99353 32:-0.99794 
0.3089176409607658 1:-0.857807 2:-0.978521 3:-0.9955 4:-0.995858 5:-0.998971 6:-0.999076 7:-0.998831 8:-0.999249 9:-0.997831 10:-0.861152 11:0.540681 12:-0.944972 13:-0.958601 14:-0.92085 15:-0.88383 16:-0.858786 17:-0.998531 18:-0.994229 19:-0.968577 20:-0.888058 21:-0.717527 22:-0.769392 23:-0.77795 24:-0.667481 25:-0.787372 26:-0.76101 27:0.464622 28:0.921706 29:-0.945626 30:-1 31:-1 32:-1 
0.08144123344595236 1:0.234629 2:-0.928132 3:-0.994366 4:-0.997395 5:-0.997374 6:-0.99787 7:-0.984213 8:-0.986558 9:-0.966564 10:-0.887541 11:-0.860958 12:-0.85101 13:-0.899553 14:-0.865579 15:-0.881932 16:-0.781279 17:-0.637316 18:-0.702738 19:-0.691068 20:-0.317105 21:0.108038 22:-0.712108 23:-0.835283 24:-0.940903 25:-0.991671 26:-0.996687 27:-0.997805 28:-0.998834 29:-0.999767 30:-0.999671 31:-0.999783 32:-1 
0.1290388842494925 1:-0.810671 2:-0.883276 3:-0.977234 4:-1 5:-1 6:-1 7:-1 8:-1 9:-0.999547 10:-0.979303 11:-0.928402 12:-0.831585 13:-0.518168 14:0.645336 15:0.0519023 16:-0.904891 17:-0.991358 18:-0.966717 19:-0.860277 20:-0.451611 21:0.000231317 22:-0.228177 23:-0.362642 24:-0.597268 25:-0.690937 26:-0.867177 27:-0.947664 28:-0.964816 29:-0.979296 30:-0.989508 31:-0.989584 32:-0.996395 
0.5 1:-0.99886 2:-0.699717 3:-0.003866 4:-0.343266 5:-0.731648 6:-0.942345 7:-0.988405 8:-0.995933 9:-0.995481 10:-0.980374 11:-0.999635 12:-0.999718 13:-1 14:-0.999787 15:-0.999816 16:-0.999963 17:-0.998385 18:-0.997478 19:-0.994967 20:-0.988385 21:-0.967682 22:-0.944066 23:-0.812072 24:-0.517544 25:-0.393039 26:-0.483583 27:-0.160807 28:-0.10601 29:-0.488665 30:-0.694418 31:-0.663287 32:-0.919125 
0.02951723749171974 1:-1 2:-1 3:-1 4:-1 5:-1 6:-0.999289 7:-0.998439 8:-0.998851 9:-0.995166 10:1 11:-0.99559 12:-1 13:-1 14:-1 15:-1 16:-1 17:-0.999721 18:-0.996731 19:-0.997652 20:-0.998235 21:-0.997998 22:-0.993305 23:-0.89107 24:0.509133 25:0.499217 26:-0.538163 27:-0.47594 28:-0.467402 29:-0.837807 30:-0.964533 31:-0.983561 32:-0.998676 
0.1810734504970076 1:-0.940099 2:-0.835289 3:0.729766 4:-0.931603 5:-0.998353 6:-0.999928 7:-0.99396 8:-0.999072 9:-0.993133 10:-0.997723 11:-0.999307 12:-1 13:-0.999787 14:-0.997851 15:-0.995105 16:-0.996017 17:-0.941325 18:-0.971441 19:-0.953389 20:-0.0131171 21:1 22:-0.384053 23:-0.843434 24:-0.961549 25:-0.985733 26:-0.995405 27:-0.997624 28:-0.998642 29:-0.999454 30:-0.999779 31:-0.999559 32:-0.999854 
0.1558469968509703 1:-1 2:-1 3:-0.990834 4:-0.700666 5:0.0916925 6:1 7:-0.674217 8:-0.99978 9:-1 10:-1 11:-1 12:-1 13:-1 14:-1 15:-1 16:-1 17:0.255698 18:-0.206646 19:-0.985198 20:-1 21:-1 22:-1 23:-1 24:-1 25:-1 26:-1 27:-1 28:-1 29:-1 30:-1 31:-1 32:-1 
0.5 1:0.995366 2:-0.886063 3:-0.9907 4:-0.997395 5:-0.999898 6:-1 7:-1 8:-1 9:-0.999368 10:-0.992029 11:-0.998798 12:-0.999318 13:-0.998623 14:-0.997309 15:-0.998469 16:-0.98649 17:-0.999964 18:-0.998026 19:-0.977846 20:-0.942997 21:-0.909039 22:-0.868286 23:-0.715371 24:-0.546516 25:-0.325767 26:-0.406123 27:-0.268079 28:-0.330868 29:-0.525943 30:-0.734763 31:-0.76572 32:-0.940025 
0.2366692496663962 1:-1 2:-1 3:1 4:-1 5:-1 6:-1 7:-1 8:-1 9:-1 10:-1 11:-1 12:-1 13:-1 14:-1 15:-1 16:-1 17:-0.998181 18:1 19:-1 20:-1 21:-1 22:-1 23:-1 24:-1 25:-1 26:-1 27:-1 28:-1 29:-1 30:-1 31:-1 32:-1 
0.1572060287536962 1:-0.999502 2:-1 3:-1 4:-1 5:-0.999744 6:-1 7:-0.999901 8:-1 9:-0.999864 10:-0.864367 11:1 12:-0.973671 13:-0.992103 14:-0.990967 15:-0.996449 16:-0.99674 17:-0.982412 18:-0.974912 19:-0.973796 20:-0.969884 21:-0.706036 22:0.510918 23:1 24:-0.745253 25:-0.974599 26:-0.998244 27:-0.999726 28:-1 29:-1 30:-1 31:-1 32:-1 
0.116662855189214 1:-0.986736 2:-0.9815 3:-0.993066 4:-0.997267 5:-1 6:-1 7:-1 8:-1 9:-1 10:-0.988346 11:-0.710039 12:0.92691 13:-0.887837 14:-0.981075 15:-0.993206 16:-0.99417 17:-0.960102 18:-0.583205 19:1 20:-0.796822 21:-0.936241 22:-0.986796 23:-0.995033 24:-0.998426 25:-0.999837 26:-0.999866 27:-1 28:-1 29:-1 30:-1 31:-1 32:-1 
0.03660919833696998 1:-0.726098 2:-0.991524 3:-0.9999 4:-1 5:-1 6:-1 7:-1 8:-1 9:-1 10:-0.999632 11:-0.993769 12:-0.983142 13:-0.659165 14:0.189804 15:-0.0465185 16:-0.332791 17:-0.980209 18:-0.57303 19:0.484084 20:-0.426531 21:-0.769426 22:-0.896907 23:-0.938166 24:-0.979354 25:-0.994888 26:-0.999392 27:-0.999819 28:-0.999901 29:-1 30:-1 31:-1 32:-1 
0.07292594679387489 1:0.99205 2:-0.99311 3:-0.990366 4:-0.997651 5:-0.99171 6:-0.991905 7:-0.94923 8:-0.985144 9:-0.990375 10:-0.994609 11:-0.986774 12:-0.995706 13:-0.991041 14:-0.987528 15:-0.972273 16:-0.967621 17:1 18:-0.990792 19:-0.996838 20:-0.996411 21:-0.997629 22:-0.997147 23:-0.997672 24:-0.997872 25:-0.998431 26:-0.998512 27:-0.997805 28:-0.996987 29:-0.996033 30:-0.993577 31:-0.836592 32:-0.962496 
0.5 1:0.11793 2:-0.0194659 3:-0.983134 4:-0.993767 5:-0.998455 6:-0.999007 7:-0.996685 8:-0.998586 9:-0.998327 10:-0.997121 11:-0.997886 12:-0.992855 13:-0.994806 14:-0.990109 15:-0.987025 16:-0.935279 17:-0.992456 18:-0.972792 19:-0.950696 20:-0.914758 21:-0.848327 22:-0.778036 23:-0.579073 24:-0.543414 25:-0.483698 26:-0.520855 27:-0.310451 28:-0.27482 29:-0.654415 30:-0.845005 31:-0.748677 32:-0.872823 
0.1861522380952531 1:-0.84597 2:0.179805 3:-0.8681 4:-0.829007 5:-0.306949 6:-0.767954 7:-0.981389 8:-1 9:-0.999864 10:-0.997991 11:-0.994607 12:-0.999639 13:-0.999418 14:-1 15:-0.998164 16:-0.998007 17:-0.945806 18:-0.999862 19:-0.896699 20:-0.447969 21:0.23738 22:-0.590559 23:-0.755466 24:-0.793533 25:-0.788703 26:-0.807966 27:-0.751824 28:-0.730196 29:-0.834199 30:-0.887159 31:-0.802162 32:-0.930023 
0.5 1:0.952223 2:-0.930377 3:-0.996466 4:-0.991546 5:-0.998301 6:-0.999148 7:-0.999415 8:-0.999072 9:-0.990375 10:-0.938246 11:-0.993916 12:-0.995063 13:-0.996129 14:-0.993335 15:-0.99437 16:-0.981963 17:-0.978523 18:-0.959219 19:-0.897883 20:-0.906968 21:-0.373826 22:0.0702034 23:0.282141 24:-0.561588 25:-0.734416 26:-0.866739 27:-0.931671 28:-0.959192 29:-0.984206 30:-0.996594 31:-0.997258 32:-0.999854 
0.1584128418709101 1:-0.979927 2:-0.999961 3:-1 4:-1 5:-1 6:-1 7:-1 8:-1 9:-0.999911 10:0.620061 11:-0.623282 12:-0.993818 13:-0.994434 14:-0.99247 15:-0.994124 16:-0.989315 17:-1 18:-0.997732 19:-0.968671 20:-0.974705 21:-0.989026 22:-0.99188 23:-0.973545 24:-0.85533 25:0.433212 26:1 27:-0.224851 28:-0.925208 29:-0.991912 30:-0.9972 31:-0.998685 32:-0.999263 
0.5 1:0.578486 2:-0.958551 3:-0.9882 4:-0.998035 5:-0.996703 6:-0.991978 7:-0.976126 8:-0.996199 9:-0.992092 10:-0.984327 11:-0.984843 12:-0.978205 13:-0.980972 14:-0.970855 15:-0.970499 16:-0.600298 17:-0.993347 18:-1 19:-0.999089 20:-0.99724 21:-0.994546 22:-0.984196 23:-0.972348 24:-0.955724 25:-0.879065 26:-0.816109 27:-0.640908 28:-0.508776 29:-0.652987 30:-0.684055 31:-0.0990867 32:0.97733 
0.5 1:-0.87214 2:-0.969657 3:-0.957266 4:-0.959269 5:-0.933516 6:-0.890012 7:-0.690496 8:-0.260308 9:0.0590565 10:-0.869792 11:-0.951357 12:-0.984467 13:-0.984416 14:-0.98785 15:-0.972027 16:-0.973343 17:-0.956796 18:-0.98886 19:-0.960161 20:-0.904148 21:-0.851744 22:-0.879682 23:-0.827099 24:-0.852191 25:-0.772362 26:-0.790382 27:-0.655338 28:-0.506695 29:-0.589964 30:-0.586406 31:0.132609 32:-0.259059 
0.09349105658208226 1:-0.955182 2:-0.991408 3:-0.9997 4:-1 5:-1 6:-1 7:-1 8:-0.999912 9:-0.997967 10:-0.907603 11:-0.953471 12:-0.622148 13:1 14:-0.578342 15:-0.901028 16:-0.936763 17:-0.998322 18:-0.962029 19:-0.786474 20:0.225238 21:0.435939 22:-0.656658 23:-0.826657 24:-0.880846 25:-0.888067 26:-0.902393 27:-0.896936 28:-0.949581 29:-0.985531 30:-0.993083 31:-0.990248 32:-0.99809 
0.04600897984621512 1:-0.971547 2:-0.990324 3:-0.9998 4:-0.999787 5:-0.995931 6:-0.998223 7:-0.997854 8:-0.998321 9:-0.996972 10:-0.977762 11:-0.799089 12:1 13:-0.884287 14:-0.986663 15:-0.988862 16:-0.992249 17:-0.960727 18:-0.786223 19:-0.825422 20:-0.804682 21:-0.293141 22:-0.0450969 23:-0.0783296 24:-0.650026 25:-0.836838 26:-0.940923 27:-0.950523 28:-0.960171 29:-0.979385 30:-0.993521 31:-0.99518 32:-0.998897 
0.01250366556734502 1:-0.943238 2:-0.979642 3:-0.999534 4:-0.999872 5:-1 6:-0.999007 7:-0.997761 8:-0.998055 9:-0.98816 10:-0.951508 11:0.835345 12:-0.857753 13:-0.910099 14:-0.988063 15:-0.992042 16:-0.99196 17:-0.975667 18:-0.978255 19:-0.968105 20:-0.967618 21:-0.917407 22:-0.908746 23:-0.798423 24:-0.658588 25:0.234266 26:0.216396 27:-0.249589 28:-0.664064 29:-0.874651 30:-0.945171 31:-0.945272 32:-0.986578 
0.4062086548912733 1:-0.927407 2:-0.862842 3:-0.978366 4:-0.996414 5:-0.994284 6:-0.996519 7:-0.981973 8:-0.995623 9:-0.978764 10:-0.791628 11:-0.0106763 12:-0.398863 13:-0.919059 14:-0.939026 15:-0.947422 16:-0.946796 17:-0.957874 18:-0.932672 19:-0.876493 20:-0.879301 21:-0.861014 22:-0.899942 23:-0.835483 24:-0.787529 25:-0.3818 26:-0.368835 27:-0.198175 28:-0.274295 29:-0.651316 30:-0.806093 31:-0.712005 32:-0.99077 
0.3831913549841781 1:-0.797515 2:-0.865592 3:-0.994 4:-0.996029 5:-0.99933 6:-0.996451 7:-0.995615 8:-0.998408 9:-0.998644 10:-0.986001 11:-0.895682 12:0.519598 13:-0.728021 14:-0.785674 15:-0.92386 16:-0.967693 17:-0.987024 18:-0.970861 19:-0.909377 20:-0.805 21:-0.771922 22:-0.911075 23:-0.898788 24:-0.922909 25:-0.612397 26:-0.635754 27:-0.672192 28:0.11347 29:-0.691296 30:-0.181874 31:-0.700379 32:-0.99899 
0.07685071067109678 1:0.137111 2:-0.953791 3:-0.9882 4:-0.989625 5:-0.996654 6:-0.999928 7:-0.998345 8:-0.998939 9:-0.997514 10:-0.995479 11:-0.984915 12:-0.95336 13:-0.894783 14:-0.815897 15:-0.753335 16:-0.394541 17:-0.986629 18:-0.913499 19:-0.689131 20:0.239885 21:0.111668 22:-0.575629 23:-0.827173 24:-0.896613 25:-0.919733 26:-0.953097 27:-0.957266 28:-0.955981 29:-0.969308 30:-0.973009 31:-0.956654 32:-0.984677 
0.5 1:-0.914 2:-0.525561 3:-0.644466 4:-0.997267 5:-0.998094 6:-0.99922 7:-0.994638 8:-0.996596 9:-0.98536 10:-0.935565 11:-0.572234 12:-0.416284 13:-0.888473 14:-0.892356 15:-0.910514 16:-0.952155 17:-0.990934 18:-0.971906 19:-0.918002 20:-0.881479 21:-0.732567 22:-0.687801 23:-0.593113 24:-0.641535 25:-0.617717 26:-0.635263 27:-0.328924 28:-0.192859 29:-0.532104 30:-0.828413 31:-0.841267 32:-0.9657 
0.1415158430201034 1:-0.994331 2:-0.998646 3:-0.9989 4:-0.992399 5:-0.992637 6:-0.995173 7:-0.993469 8:-0.996639 9:-0.990058 10:0.0185194 11:0.0117322 12:-0.98812 13:-0.991359 14:-0.989354 15:-0.992104 16:-0.994422 17:-0.995156 18:-0.991601 19:-0.988713 20:-0.987569 21:-0.987629 22:-0.988842 23:-0.977483 24:-0.970759 25:-0.965473 26:-0.95141 27:-0.888865 28:-0.812703 29:-0.183093 30:1 31:-0.356841 32:-0.921035 
0.5 1:0.598452 2:-0.746855 3:-0.9939 4:-0.999744 5:-1 6:-1 7:-0.999024 8:-0.999867 9:-0.999233 10:-0.991159 11:-0.999198 12:-0.999318 13:-0.998728 14:-0.995916 15:-0.978028 16:-0.721665 17:-0.990928 18:-0.984447 19:-0.956114 20:-0.843573 21:-0.792024 22:-0.715032 23:-0.192497 24:0.0156702 25:-0.0919335 26:-0.614301 27:-0.752663 28:-0.820449 29:-0.899252 30:-0.939245 31:-0.899375 32:-0.969891 
0.006241212071303662 1:-0.875777 2:-0.962499 3:-0.9951 4:-0.998163 5:-0.997785 6:-0.998581 7:-0.999316 8:-0.999382 9:-0.993447 10:0.659881 11:-0.894151 12:-0.974032 13:-0.974875 14:-0.962899 15:-0.96903 16:-0.975118 17:-0.977807 18:-0.924861 19:0.786371 20:-0.213182 21:-0.907985 22:-0.969537 23:-0.962265 24:-0.965969 25:-0.932753 26:-0.912227 27:-0.92388 28:-0.957269 29:-0.98815 30:-0.99108 31:-0.990821 32:-0.999259 
0.5 1:-0.187349 2:-0.894771 3:-0.959734 4:-0.951797 5:-0.970338 6:-0.978132 7:-0.96131 8:-0.975284 9:-0.933081 10:-0.584728 11:-0.885734 12:-0.925988 13:-0.940262 14:-0.906009 15:-0.900782 16:-0.716449 17:-0.939017 18:-0.847902 19:-0.677612 20:-0.577823 21:-0.264827 22:-0.7503 23:-0.693306 24:-0.649907 25:-0.664398 26:-0.729176 27:-0.646488 28:-0.641183 29:-0.871649 30:-0.99215 31:-0.99781 32:-0.999925 
0.5 1:-0.918777 2:-0.799721 3:-0.794834 4:-0.937154 5:-0.981668 6:-0.984237 7:-0.955954 8:-0.955478 9:-0.787041 10:0.146651 11:-0.921953 12:-0.984267 13:-0.98786 14:-0.983547 15:-0.975028 16:-0.978015 17:-0.768503 18:-0.812824 19:-0.86963 20:-0.861661 21:-0.871552 22:-0.932603 23:-0.928553 24:-0.939598 25:-0.891734 26:-0.876468 27:-0.75737 28:-0.538936 29:-0.256622 30:-0.409934 31:-0.308715 32:-0.923811 
0.1279223475794399 1:-0.873353 2:-0.934478 3:-0.9646 4:-0.982452 5:-0.99552 6:-0.996379 7:-0.993861 8:-0.995756 9:-0.719173 10:0.399698 11:-0.869156 12:-0.990528 13:-0.992526 14:-0.988921 15:-0.987881 16:-0.974429 17:-0.961138 18:-0.962417 19:-0.940921 20:-0.960407 21:-0.95286 22:-0.930416 23:-0.87703 24:-0.850418 25:-0.86703 26:-0.921749 27:-0.889436 28:-0.765298 29:-0.482771 30:-0.237824 31:0.833179 32:-0.488223 
0.1711494974063084 1:-0.938816 2:-0.989667 3:-0.997866 4:-0.997866 5:-0.996858 6:-0.994321 7:-0.973495 8:-0.992394 9:0.334599 10:-0.129939 11:-0.967572 12:-0.99402 13:-0.99438 14:-0.990534 15:-0.992225 16:-0.983991 17:-0.998458 18:-0.995918 19:-0.989526 20:-0.973159 21:-0.951597 22:-0.945476 23:-0.898537 24:-0.878936 25:-0.734812 26:-0.306979 27:0.539013 28:0.11453 29:-0.565391 30:-0.804759 31:-0.67676 32:-0.932666 
0.07638753574490749 1:-0.828605 2:-0.94218 3:-0.988266 4:-0.976348 5:-0.965755 6:-0.948237 7:-0.835012 8:-0.959632 9:-0.898875 10:-0.725519 11:0.0989612 12:-0.854583 13:-0.950332 14:-0.948704 15:-0.957646 16:-0.910577 17:-0.942655 18:-0.848335 19:-0.847956 20:-0.84406 21:-0.732504 22:-0.575112 23:-0.0444542 24:0.288005 25:-0.471401 26:-0.896793 27:-0.943215 28:-0.97533 29:-0.996733 30:-0.999341 31:-1 32:-1 
0.07398571972600443 1:-0.888934 2:-0.940555 3:-0.9977 4:-0.997779 5:-0.999846 6:-1 7:-0.989668 8:-0.972764 9:-0.954814 10:-0.823643 11:-0.920276 12:-0.788557 13:-0.0532973 14:1 15:-0.842086 16:-0.936872 17:0.234122 18:-0.521819 19:-0.836698 20:-0.758175 21:-0.837931 22:-0.970553 23:-0.991155 24:-0.994563 25:-0.999258 26:-1 27:-1 28:-1 29:-1 30:-1 31:-1 32:-1 
0.0929642433697425 1:-0.773518 2:0.838809 3:-0.936566 4:-0.981512 5:-0.981513 6:-0.971954 7:-0.988206 8:-0.999292 9:-0.998869 10:-0.995881 11:-0.994462 12:-0.996708 13:-0.992208 14:-0.982901 15:-0.958869 16:-0.943934 17:-0.948137 18:-0.910711 19:-0.649031 20:1 21:-0.515801 22:-0.834773 23:-0.866086 24:-0.911042 25:-0.936019 26:-0.969816 27:-0.972469 28:-0.974654 29:-0.983062 30:-0.988873 31:-0.983502 32:-0.992102 
0.05629463993162851 1:-0.854206 2:1 3:-0.9551 4:-0.988132 5:-0.999382 6:-1 7:-0.999415 8:-1 9:-1 10:-0.999564 11:-0.986955 12:-0.982259 13:-0.989082 14:-0.980108 15:-0.969273 16:-0.967984 17:-0.961814 18:-0.917627 19:-0.829937 20:0.286452 21:0.941272 22:-0.817678 23:-0.924661 24:-0.969269 25:-0.983669 26:-0.99047 27:-0.992961 28:-0.994656 29:-0.997354 30:-0.998903 31:-0.999559 32:-0.999704 
0.5 1:-0.527785 2:-0.879909 3:-0.967334 4:-0.965502 5:-0.956999 6:-0.939218 7:-0.901476 8:-0.913696 9:-0.809183 10:-0.752746 11:-0.88016 12:-0.895162 13:-0.905542 14:-0.888266 15:-0.886155 16:-0.455896 17:-0.948376 18:-0.935376 19:-0.86441 20:-0.783499 21:-0.6321 22:-0.710483 23:-0.593155 24:-0.604833 25:-0.571432 26:-0.712614 27:-0.677838 28:-0.579843 29:-0.646215 30:-0.753773 31:-0.688096 32:-0.925849 
0.5 1:1 2:-0.903246 3:-0.9969 4:-1 5:-1 6:-1 7:-1 8:-1 9:-1 10:-1 11:-1 12:-0.998394 13:-0.997933 14:-0.996451 15:-0.997367 16:-0.958022 17:-0.98895 18:-0.949022 19:-0.866876 20:-0.79282 21:-0.758746 22:-0.780175 23:-0.672814 24:-0.662034 25:0.0100334 26:-0.141414 27:-0.248975 28:-0.751136 29:-0.945159 30:-0.993962 31:-0.999014 32:-1 
0.5 1:-0.0413068 2:-0.571037 3:-0.938366 4:-0.927845 5:-0.955352 6:-0.964426 7:-0.900991 8:-0.942744 9:-0.924449 10:-0.953784 11:-0.937256 12:-0.908928 13:-0.927859 14:-0.907945 15:-0.893254 16:-0.862155 17:-0.830099 18:-0.717119 19:-0.37473 20:-0.692461 21:-0.682117 22:-0.810377 23:-0.789309 24:-0.802497 25:-0.754151 26:-0.744294 27:-0.669422 28:-0.729805 29:-0.842152 30:-0.976543 31:-0.985198 32:-0.995583 
0.5 1:-0.114685 2:-0.714037 3:-0.890834 4:-0.894586 5:-0.982079 6:-0.993823 7:-0.976711 8:-0.97608 9:-0.883557 10:-0.881782 11:-0.962107 12:-0.971703 13:-0.973126 14:-0.967203 15:-0.955013 16:-0.586281 17:-0.958388 18:-0.901445 19:-0.637744 20:-0.642107 21:-0.309288 22:-0.469088 23:-0.533616 24:-0.635001 25:-0.848072 26:-0.91024 27:-0.869416 28:-0.823596 29:-0.604592 30:-0.886023 31:-0.987947 32:-0.999854 
0.1220450065277389 1:-0.875957 2:-0.900307 3:-0.941734 4:-0.960038 5:-0.959369 6:-0.95257 7:-0.829949 8:1 9:-0.919751 10:-0.988647 11:-0.989216 12:-0.996708 13:-0.999205 14:-0.994838 15:-0.990331 16:-0.996017 17:-0.686875 18:0.319376 19:-0.547894 20:-0.950172 21:-0.955067 22:-0.977679 23:-0.990299 24:-0.996691 25:-0.996868 26:-0.998447 27:-0.99927 28:-0.999516 29:-0.999921 30:-0.999727 31:-1 32:-1 
0.1485657691635111 1:-0.835203 2:-0.955184 3:-0.9955 4:-0.996626 5:-0.998248 6:-0.999574 7:-0.999316 8:-0.99969 9:-0.999276 10:-0.992298 11:0.571144 12:-0.788477 13:-0.799634 14:-0.946556 15:-0.976743 16:-0.976133 17:-0.997201 18:-0.975038 19:-0.81567 20:-0.805717 21:-0.859319 22:-0.874996 23:-0.622683 24:-0.129634 25:1 26:-0.582066 27:-0.913659 28:-0.969006 29:-0.98646 30:-0.991874 31:-0.990571 32:-0.993086 
0.04148514821625476 1:-0.865508 2:-0.833391 3:-0.971666 4:-0.986764 5:-0.992377 6:-0.994888 7:-0.98616 8:-0.995843 9:-0.985677 10:0.0982254 11:-0.454289 12:-0.973228 13:-0.982508 14:-0.988386 15:-0.949871 16:-0.98928 17:-0.880361 18:-0.926859 19:-0.891531 20:-0.891866 21:-0.83657 22:-0.747097 23:-0.423918 24:-0.152336 25:0.104701 26:-0.406285 27:-0.739259 28:-0.945502 29:-0.988873 30:-0.997915 31:-0.996495 32:-0.999043 
0.5 1:-0.847825 2:-0.0977987 3:-0.3713 4:-0.682137 5:-0.942631 6:-0.986082 7:-0.962187 8:-0.989344 9:-0.98771 10:-0.980274 11:-0.954674 12:-0.963075 13:-0.987969 14:-0.991076 15:-0.968722 16:-0.988085 17:-0.844462 18:-0.782491 19:-0.641506 20:-0.60189 21:-0.472028 22:-0.61657 23:-0.530292 24:-0.649104 25:-0.652778 26:-0.785901 27:-0.797219 28:-0.896919 29:-0.986372 30:-0.996317 31:-0.993194 32:-0.999559 
0.5 1:-0.353502 2:-0.602345 3:-0.9604 4:-0.978822 5:-0.978887 6:-0.992191 7:-0.914825 8:-0.997965 9:-0.99015 10:-0.893638 11:-0.740608 12:-0.893315 13:-0.937982 14:-0.927199 15:-0.928693 16:-0.555024 17:-0.954169 18:-0.910538 19:-0.655345 20:-0.512818 21:-0.360409 22:-0.490992 23:-0.389614 24:-0.545508 25:-0.615767 26:-0.826685 27:-0.88638 28:-0.911716 29:-0.976304 30:-0.985091 31:-0.990886 32:-0.998231 
0.5 1:0.507247 2:-0.793143 3:-0.971834 4:-0.987063 5:-0.989288 6:-0.991833 7:-0.96901 8:-0.990537 9:-0.98771 10:-0.829068 11:-0.964693 12:-0.980814 13:-0.98309 14:-0.970642 15:-0.958134 16:-0.917423 17:-0.928863 18:-0.916996 19:-0.870317 20:-0.856889 21:-0.810721 22:-0.842108 23:-0.822197 24:-0.820051 25:-0.821141 26:-0.760795 27:-0.196924 28:0.228259 29:-0.306786 30:-0.788216 31:-0.926703 32:-0.993448 
0.08834509424811379 1:-0.935821 2:-0.928441 3:0.608866 4:-0.923405 5:-1 6:-1 7:-1 8:-1 9:-1 10:-1 11:-1 12:-0.999357 13:-0.902202 14:-0.849874 15:-0.918167 16:-0.938539 17:-0.99944 18:-0.931541 19:0.147469 20:0.651174 21:-0.786624 22:-0.905897 23:-0.945768 24:-0.957058 25:-0.978805 26:-0.999258 27:-1 28:-1 29:-1 30:-1 31:-1 32:-1 
0.5 1:-0.222112 2:-0.529472 3:-0.315566 4:-0.853855 5:-0.99171 6:-0.99922 7:-0.978559 8:-0.998586 9:-0.998509 10:-0.994374 11:-0.982948 12:-0.993137 13:-0.993426 14:-0.996129 15:-0.968601 16:-0.995219 17:-0.182051 18:-0.419022 19:-0.595844 20:-0.792661 21:-0.886877 22:-0.943694 23:-0.938012 24:-0.947942 25:-0.956922 26:-0.96585 27:-0.945365 28:-0.954232 29:-0.975903 30:-0.975729 31:-0.965505 32:-0.987099 
0.286955790046528 1:-0.890183 2:-0.883741 3:-0.995 4:-0.997098 5:-0.996703 6:-0.996379 7:-0.98392 8:-0.961712 9:-0.750712 10:0.407268 11:-0.930223 12:-0.974634 13:-0.97816 14:-0.962686 15:-0.954524 16:-0.96505 17:-0.955004 18:-0.917643 19:-0.858789 20:-0.882457 21:-0.855187 22:-0.847218 23:-0.750559 24:-0.773161 25:-0.75134 26:-0.769785 27:-0.375334 28:0.0518552 29:0.0452027 30:-0.844916 31:-0.956792 32:-0.99632 
0.5 1:-0.727275 2:-0.801115 3:-0.826466 4:-0.876995 5:-0.959421 6:-0.966697 7:-0.903131 8:-0.931955 9:-0.35326 10:-0.428901 11:-0.949936 12:-0.974311 13:-0.985265 14:-0.985592 15:-0.983658 16:-0.953785 17:-0.657337 18:-0.851659 19:-0.867408 20:-0.868988 21:-0.838986 22:-0.849301 23:-0.709887 24:-0.544327 25:-0.436933 26:-0.576417 27:-0.529768 28:-0.725067 29:-0.878534 30:-0.930667 31:-0.821356 32:-0.918185 
0.5 1:-0.649368 2:-0.788343 3:-0.908366 4:-0.915123 5:-0.901589 6:-0.913303 7:-0.745359 8:-0.848127 9:-0.408567 10:-0.782485 11:-0.889525 12:-0.935019 13:-0.938405 14:-0.933109 15:-0.922207 16:-0.873598 17:-0.880033 18:-0.843496 19:-0.720719 20:-0.688498 21:-0.544689 22:-0.663048 23:-0.546939 24:-0.665079 25:-0.574515 26:-0.765434 27:-0.773638 28:-0.772525 29:-0.894823 30:-0.912069 31:-0.819212 32:-0.923837 
0.5 1:0.0259038 2:-0.141955 3:-0.8634 4:-0.978525 5:-0.997117 6:-0.998436 7:-0.997076 8:-0.998851 9:-0.999729 10:-0.999865 11:-0.999453 12:-0.999718 13:-0.991944 14:-0.984405 15:-0.926798 16:-0.898734 17:-0.994975 18:-0.984132 19:-0.916381 20:-0.831245 21:-0.622398 22:-0.659492 23:-0.329349 24:-0.391047 25:-0.199012 26:-0.499894 27:-0.549822 28:-0.74571 29:-0.868858 30:-0.944555 31:-0.960073 32:-0.992932 
0.01163315672167816 1:-0.993796 2:-0.996633 3:-0.999366 4:-0.999188 5:-0.994645 6:-0.993682 7:-0.989961 8:-0.984394 9:-0.93412 10:0.893537 11:-0.966698 12:-0.998996 13:-0.999469 14:-0.998922 15:-0.999082 16:-0.997138 17:-0.98955 18:-0.98792 19:-0.976745 20:-0.950087 21:-0.967802 22:-0.984084 23:-0.980155 24:-0.970049 25:-0.915294 26:-0.491377 27:1 28:0.398905 29:-0.458776 30:-0.825831 31:-0.872165 32:-0.959139 
0.5 1:-0.75644 2:-0.814311 3:-0.930434 4:-0.999444 5:-0.999021 6:-0.998509 7:-0.99503 8:-0.992352 9:-0.930731 10:-0.826725 11:-0.978175 12:-0.983101 13:-0.979909 14:-0.956983 15:-0.949383 16:0.328262 17:-0.971081 18:-0.972979 19:-0.958842 20:-0.909679 21:-0.78871 22:-0.807822 23:-0.749419 24:-0.756911 25:-0.828935 26:-0.926648 27:-0.924374 28:-0.90903 29:-0.914794 30:-0.924804 31:0.190375 32:0.871782 
0.5 1:-0.830283 2:-0.672124 3:-0.950434 4:-0.986723 5:-0.994027 6:-0.996093 7:-0.987329 8:-0.992527 9:-0.924856 10:-0.617147 11:-0.740208 12:-0.797749 13:-0.924147 14:-0.924398 15:-0.938671 16:-0.416889 17:-0.92093 18:-0.81368 19:-0.533986 20:-0.42963 21:-0.453665 22:-0.84556 23:-0.911306 24:-0.917647 25:-0.888557 26:-0.869063 27:-0.705336 28:-0.514458 29:-0.420402 30:-0.910501 31:-0.991892 32:-0.998822 
0.02096783445279359 1:-0.974185 2:-0.951701 3:-0.967034 4:-0.964392 5:-0.990113 6:-0.991479 7:-0.984312 8:-0.994342 9:-0.9845 10:-0.575384 11:0.346294 12:-0.807661 13:-0.978796 14:-0.987095 15:-0.990147 16:-0.994204 17:-0.963232 18:-0.950875 19:-0.931479 20:-0.933019 21:-0.826099 22:-0.540238 23:0.132795 24:0.0329456 25:-0.254452 26:-0.68917 27:-0.84189 28:-0.904 29:-0.958989 30:-0.982611 31:-0.979017 32:-0.996757 
0.1140408030977538 1:-0.853528 2:-0.971631 3:-0.997066 4:-0.997523 5:-0.998455 6:-0.998296 7:-0.998053 8:-0.997037 9:-0.967784 10:0.334795 11:-0.666424 12:-0.934455 13:-0.954097 14:-0.938168 15:-0.950606 16:-0.954148 17:-0.998468 18:-0.998052 19:-0.990478 20:-0.975425 21:-0.937972 22:-0.91973 23:-0.874009 24:-0.847798 25:-0.787797 26:-0.791643 27:-0.708047 28:-0.672311 29:-0.722025 30:-0.789879 31:-0.25761 32:1 
0.5 1:-0.547002 2:-0.804482 3:-0.8337 4:-0.906498 5:-0.978217 6:-0.98736 7:-0.967841 8:-0.98121 9:-0.983373 10:-0.971467 11:-0.952232 12:-0.785065 13:-0.168536 14:-0.572103 15:-0.810136 16:-0.889353 17:-0.630802 18:-0.406013 19:-0.628388 20:-0.76942 21:-0.809942 22:-0.860274 23:-0.828859 24:-0.847813 25:-0.828807 26:-0.806632 27:-0.724369 28:-0.854916 29:-0.955815 30:-0.976625 31:-0.95839 32:-0.986225 
0.5 1:0.82201 2:-0.980262 3:-0.997534 4:-0.998676 5:-1 6:-1 7:-1 8:-1 9:-1 10:-1 11:-1 12:-1 13:-1 14:-0.989567 15:-0.976129 16:-0.717607 17:-1 18:-0.994621 19:-0.972802 20:-0.958649 21:-0.939938 22:-0.944193 23:-0.911664 24:-0.887247 25:-0.886607 26:-0.918785 27:-0.85148 28:-0.479239 29:0.736555 30:-0.0456357 31:-0.53196 32:-0.944993 
0.06829250247873747 1:-0.927264 2:-0.805023 3:-0.975866 4:-0.993511 5:-0.994747 6:-0.996732 7:-0.988598 8:-0.981343 9:1 10:-0.95191 11:-0.916487 12:-0.95308 13:-0.919854 14:-0.974191 15:-0.978579 16:-0.996451 17:-0.950942 18:-0.86198 19:-0.0748495 20:0.446765 21:-0.770609 22:-0.922821 23:-0.94662 24:-0.963676 25:-0.931298 26:-0.878475 27:-0.856435 28:-0.930063 29:-0.989032 30:-0.999891 31:-1 32:-1 
0.5 1:-0.741322 2:-0.938272 3:-0.973966 4:-0.982793 5:-0.982335 6:-0.98445 7:-0.913071 8:-0.909892 9:-0.850977 10:-0.907267 11:-0.89827 12:-0.910775 13:-0.960509 14:-0.945155 15:-0.902251 16:0.178536 17:-0.700787 18:-0.665676 19:-0.776006 20:-0.835293 21:-0.824657 22:-0.823882 23:-0.763831 24:-0.616421 25:-0.210938 26:-0.333444 27:-0.874178 28:-0.997768 29:-1 30:-1 31:-1 32:-1 
0.4185060103279692 1:-0.608935 2:-0.857232 3:-0.954166 4:-0.964477 5:-0.959934 6:-0.978059 7:-0.810262 8:-0.939383 9:-0.719534 10:-0.646852 11:-0.765712 12:-0.796745 13:-0.888632 14:-0.905906 15:-0.88989 16:-0.793194 17:-0.600911 18:-0.573849 19:-0.64937 20:-0.744623 21:-0.720498 22:-0.78398 23:-0.777284 24:-0.85515 25:-0.838338 26:-0.903403 27:-0.889826 28:-0.856839 29:-0.875719 30:-0.892558 31:-0.808553 32:-0.939761 
0.0241162748758469 1:-0.98424 2:-1 3:-1 4:-1 5:-1 6:-1 7:-1 8:-1 9:-1 10:-0.810817 11:0.691128 12:-0.859479 13:-0.933634 14:-0.920527 15:-0.939467 16:-0.963238 17:-0.998462 18:-0.707212 19:0.836841 20:-0.638412 21:-0.837335 22:-0.866657 23:-0.851655 24:-0.970607 25:-0.995215 26:-1 27:-1 28:-1 29:-1 30:-1 31:-1 32:-1 
0.123713877626689 1:-0.764392 2:-0.40342 3:-0.369234 4:-0.600035 5:-0.91266 6:-0.981753 7:-0.953516 8:-0.990537 9:-0.990015 10:-0.985868 11:-0.972382 12:-0.966928 13:-0.953089 14:-0.911494 15:-0.91682 16:-0.936618 17:-0.867055 18:-0.658304 19:-0.307658 20:-0.358823 21:-0.385752 22:-0.644231 23:-0.747226 24:-0.852176 25:-0.928824 26:-0.97594 27:-0.985367 28:-0.994463 29:-0.999454 30:-0.999891 31:-1 32:-1 
0.5 1:-0.740359 2:-0.210071 3:-0.4969 4:-0.653659 5:-0.880062 6:-0.894485 7:-0.83472 8:-0.967723 9:-0.96864 10:-0.977529 11:-0.987101 12:-0.996347 13:-0.992526 14:-0.992257 15:-0.987635 16:-0.976965 17:-0.980885 18:-0.966957 19:-0.801282 20:-0.765474 21:-0.628136 22:-0.680441 23:-0.481581 24:-0.563772 25:-0.534575 26:-0.561607 27:-0.402092 28:-0.594017 29:-0.779694 30:-0.91982 31:-0.942188 32:-0.980048 
0.5 1:-0.814486 2:-0.372344 3:-0.765034 4:-0.0671587 5:-0.700131 6:-0.8658 7:-0.921941 8:-0.979794 9:-0.983915 10:-0.994876 11:-0.999272 12:-1 13:-1 14:-1 15:-0.995347 16:-0.996197 17:-0.00483802 18:-0.577446 19:-0.668707 20:-0.76845 21:-0.842678 22:-0.906403 23:-0.898485 24:-0.926029 25:-0.946208 26:-0.974131 27:-0.974625 28:-0.97635 29:-0.985349 30:-0.991254 31:-0.984298 32:-0.992927 
0.5 1:-0.321235 2:-0.662139 3:-0.675866 4:-0.253694 5:-0.958442 6:-0.981114 7:-0.965794 8:-0.983598 9:-0.967014 10:-0.971266 11:-0.986046 12:-0.988481 13:-0.994434 14:-0.995161 15:-0.989596 16:-0.976242 17:-0.922107 18:-0.886834 19:-0.882779 20:-0.894901 21:-0.838932 22:-0.8716 23:-0.769091 24:-0.535873 25:-0.120457 26:-0.237991 27:-0.0064439 28:-0.703031 29:-0.945281 30:-0.985862 31:-0.983969 32:-0.994988 
0.5 1:0.293567 2:-0.862069 3:-0.9498 4:-0.984971 5:-0.956381 6:-0.92452 7:-0.77791 8:-0.970156 9:-0.96254 10:-0.922605 11:-0.911969 12:-0.932851 13:-0.92929 14:-0.913649 15:-0.850411 16:-0.941181 17:0.151867 18:-0.786125 19:-0.725731 20:-0.775547 21:-0.777215 22:-0.877622 23:-0.8717 24:-0.925982 25:-0.914319 26:-0.951178 27:-0.948185 28:-0.954623 29:-0.97882 30:-0.988362 31:-0.981503 32:-0.993646 
0.5 1:0.250567 2:-0.401795 3:-0.9389 4:-0.971565 5:-0.992121 6:-0.996166 7:-0.986745 8:-0.995445 9:-0.985992 10:-0.950503 11:-0.961232 12:-0.98242 13:-0.978904 14:-0.973113 15:-0.970437 16:-0.923833 17:-0.560329 18:-0.0707884 19:-0.829248 20:-0.897689 21:-0.898043 22:-0.880277 23:-0.764338 24:-0.674445 25:-0.806726 26:-0.930845 27:-0.975947 28:-0.990285 29:-0.997666 30:-0.998903 31:-0.998685 32:-0.999779 
0.5 1:-0.874316 2:-0.740121 3:-0.026234 4:-0.86692 5:-0.938512 6:-0.95136 7:-0.862201 8:-0.939471 9:-0.951967 10:-0.956833 11:-0.94611 12:-0.9357 13:-0.927487 14:-0.904829 15:-0.87177 16:-0.891817 17:-0.708663 18:-0.58742 19:-0.731971 20:-0.838847 21:-0.857398 22:-0.874069 23:-0.741039 24:-0.741017 25:0.235781 26:-0.712014 27:-0.941832 28:-0.975516 29:-0.989653 30:-0.99577 31:-0.9966 32:-0.998972 
0.1314761677960068 1:-0.768634 2:0.93061 3:-0.992766 4:-0.997651 5:-0.997476 6:-0.999433 7:-0.984113 8:-0.995358 9:-0.991414 10:-0.964434 11:-0.971907 12:-0.984628 13:-0.992685 14:-0.989999 15:-0.988737 16:-0.992466 17:-0.944701 18:-0.968357 19:-0.959506 20:-0.940258 21:-0.422585 22:1 23:-0.186017 24:-0.752978 25:-0.910538 26:-0.968928 27:-0.985532 28:-0.990564 29:-0.995482 30:-0.997856 31:-0.996817 32:-0.999559 
0.01785554877202821 1:-0.987592 2:-0.8921 3:-0.991766 4:-0.996029 5:-0.995881 6:-0.998083 7:-0.990545 8:-0.996862 9:-0.985542 10:0.312893 11:-0.424304 12:-0.982018 13:-0.992685 14:-0.993335 15:-0.992655 16:-0.994278 17:-0.989441 18:-0.973877 19:-0.936386 20:-0.912118 21:-0.780102 22:-0.787182 23:-0.258358 24:0.580579 25:0.442862 26:-0.853401 27:-0.968085 28:-0.994854 29:-0.999379 30:-0.999944 31:-0.999888 32:-0.999925 
0.2050881398134214 1:-0.762216 2:-0.89543 3:-0.998766 4:-0.999915 5:-0.999947 6:-1 7:-0.999807 8:-1 9:-1 10:-0.975821 11:0.556824 12:-0.925063 13:-0.947787 14:-0.933006 15:-0.937999 16:-0.904021 17:-0.998834 18:-0.987936 19:-0.959402 20:-0.950564 21:-0.906984 22:-0.860419 23:-0.795761 24:-0.760098 25:-0.776965 26:-0.810472 27:-0.767691 28:-0.675219 29:-0.225458 30:0.0373446 31:-0.25496 32:-0.875652 
0.05248622116347947 1:-0.890575 2:-0.966794 3:-0.993566 4:-0.995345 5:-0.996345 6:-0.996877 7:-0.990253 8:-0.993678 9:-0.975464 10:0.726323 11:-0.968482 12:-0.985189 13:-0.986906 14:-0.983547 15:-0.985248 16:-0.947592 17:-0.956458 18:-0.971938 19:-0.970439 20:-0.960816 21:-0.938674 22:-0.91915 23:-0.727549 24:-0.106836 25:0.793221 26:-0.143231 27:-0.679896 28:-0.931217 29:-0.949971 30:-0.982812 31:-0.993641 32:-0.999193 
0.2527832069829138 1:-0.877809 2:-0.948954 3:-0.9948 4:-0.995945 5:-0.996138 6:-0.995599 7:-0.989083 8:-0.990052 9:-0.801274 10:0.445412 11:-0.927418 12:-0.962552 13:-0.965279 14:-0.943433 15:-0.94271 16:-0.930135 17:-0.990337 18:-0.97471 19:-0.940375 20:-0.875066 21:-0.782549 22:-0.787703 23:-0.721711 24:-0.717449 25:-0.624799 26:-0.472914 27:0.73278 28:-0.163999 29:-0.900843 30:-0.973941 31:-0.96993 32:-0.989764 
0.0297550335850906 1:-0.996934 2:-0.999459 3:-0.999834 4:-0.998975 5:-0.999073 6:-1 7:-0.998638 8:-0.999912 9:-0.964801 10:0.610918 11:-0.635599 12:-0.984147 13:-0.988128 14:-0.979888 15:-0.992593 16:-0.998985 17:-0.998426 18:-0.995596 19:-0.902327 20:-0.744824 21:0.366548 22:0.445577 23:-0.426566 24:-0.770858 25:-0.903665 26:-0.988982 27:-0.99735 28:-0.998252 29:-0.9986 30:-1 31:-1 32:-1 
0.5 1:-0.214554 2:-0.768025 3:-0.854366 4:-0.986082 5:-0.983624 6:-0.994176 7:-0.816401 8:-0.989699 9:-0.978493 10:-0.8213 11:-0.559336 12:-0.935218 13:-0.973498 14:-0.998064 15:-0.738094 16:-0.983774 17:-0.380779 18:-0.982697 19:-0.747014 20:-0.672054 21:-0.374337 22:-0.688185 23:-0.6215 24:-0.954405 25:-0.692838 26:-0.853385 27:-0.887757 28:-0.848762 29:-0.898346 30:-0.9215 31:-0.945831 32:-0.994017 
0.5 1:0.472233 2:-0.934982 3:-0.973434 4:-0.988857 5:-0.991401 6:-0.994036 7:-0.981582 8:-0.993235 9:-0.995256 10:-0.997522 11:-0.997632 12:-0.998394 13:-0.99597 14:-0.99247 15:-0.982618 16:-0.468898 17:-0.963295 18:-0.988604 19:-0.961759 20:-0.969481 21:-0.948536 22:-0.94002 23:-0.895087 24:-0.91247 25:-0.873523 26:-0.838539 27:-0.339442 28:0.206048 29:0.441591 30:-0.473134 31:-0.864215 32:-0.982616 
0.5 1:-0.897955 2:-0.922598 3:-0.960666 4:-0.888866 5:-0.980945 6:-0.990201 7:-0.985482 8:-0.99297 9:-0.987393 10:-0.609678 11:0.239826 12:-0.938067 13:-0.951553 14:-0.95193 15:-0.966519 16:-0.959183 17:-0.942865 18:-0.926178 19:-0.883196 20:-0.900252 21:-0.899858 22:-0.897011 23:-0.853759 24:-0.832022 25:-0.781532 26:-0.742193 27:-0.518812 28:-0.155601 29:-0.13544 30:-0.557458 31:-0.58419 32:-0.882146 
0.1376718921393502 1:-0.842119 2:-0.942141 3:-0.977166 4:-0.990906 5:-0.99619 6:-0.997018 7:-0.989183 8:-0.994209 9:-0.971533 10:0.604153 11:-0.895209 12:-0.985953 13:-0.986429 14:-0.985482 15:-0.983904 16:-0.985114 17:-0.987091 18:-0.900968 19:-0.906977 20:-0.923906 21:-0.91262 22:-0.893448 23:-0.549792 24:1 25:0.0352467 26:-0.842245 27:-0.796906 28:-0.835963 29:-0.964277 30:-0.996759 31:-0.99781 32:-0.999193 
0.07335090592554734 1:-0.687484 2:-0.772476 3:-0.7611 4:-0.700966 5:-0.890567 6:-0.904995 7:-0.820786 8:-0.909584 9:-0.90633 10:-0.881079 11:-0.902677 12:-0.930402 13:-0.903847 14:-0.859772 15:-0.822009 16:-0.718114 17:-0.340246 18:-0.450428 19:-0.648212 20:-0.786721 21:-0.808817 22:-0.88454 23:-0.878217 24:-0.88493 25:-0.849032 26:-0.896623 27:-0.915442 28:-0.922061 29:-0.959586 30:-0.973898 31:-0.986152 32:-0.999263 
0.5 1:-0.614427 2:-0.941832 3:-0.992066 4:-0.996073 5:-0.994902 6:-0.994462 7:-0.986844 8:-0.995623 9:-0.902445 10:0.202647 11:-0.83742 12:-0.95585 13:-0.966552 14:-0.964299 15:-0.96505 16:-0.935677 17:-0.981277 18:-0.985718 19:-0.970637 20:-0.952649 21:-0.864373 22:-0.85089 23:-0.808939 24:-0.797878 25:-0.734926 26:-0.799385 27:-0.708842 28:-0.646813 29:-0.714562 30:-0.702762 31:0.109838 32:0.187123 
0.05870991742263428 1:-0.758188 2:-0.904486 3:-0.9771 4:-0.995176 5:-0.99763 6:-0.998581 7:-0.995615 8:-0.996153 9:-0.982153 10:-0.891427 11:0.10348 12:-0.847318 13:-0.92118 14:-0.856649 15:-0.827459 16:-0.768675 17:-0.945261 18:-0.933304 19:-0.834668 20:-0.782835 21:-0.453323 22:-0.401591 23:-0.388134 24:-0.519217 25:-0.618024 26:-0.733219 27:-0.720572 28:-0.747639 29:-0.864126 30:-0.940338 31:-0.908567 32:-0.972234 
0.5 1:-0.330184 2:-0.968304 3:-0.987566 4:-0.996585 5:-0.999744 6:-0.999715 7:-0.997562 8:-1 9:-0.995752 10:-0.997924 11:-0.99876 12:-0.999639 13:-0.999151 14:-0.99871 15:-0.999449 16:0.436845 17:-0.984168 18:-0.982683 19:-0.964219 20:-0.951104 21:-0.94395 22:-0.957367 23:-0.89329 24:-0.747092 25:-0.527197 26:-0.603794 27:-0.237025 28:0.315808 29:-0.335644 30:-0.778867 31:-0.632625 32:-0.851755 
0.5 1:-0.892784 2:-0.854367 3:0.6404 4:-0.850225 5:-0.995004 6:-0.999148 7:-0.98509 8:-0.997347 9:-1 10:-0.997991 11:-0.99876 12:-0.999357 13:-0.999418 14:-0.999032 15:-0.999082 16:-0.998442 17:-0.965628 18:-0.695002 19:-0.479391 20:-0.372411 21:-0.186757 22:-0.463587 23:-0.630229 24:-0.889053 25:-0.931956 26:-0.951065 27:-0.946051 28:-0.976787 29:-0.989886 30:-0.998132 31:-1 32:-1 
0.2628884259754519 1:-0.717077 2:-0.96842 3:-0.997966 4:-1 5:-1 6:-1 7:-1 8:-1 9:-1 10:-1 11:-1 12:-1 13:-1 14:-1 15:-1 16:0.853932 17:-1 18:-0.988246 19:-0.958914 20:-0.962751 21:-0.945587 22:-0.941775 23:-0.931188 24:-0.920672 25:-0.843153 26:-0.691023 27:-0.18301 28:0.119851 29:-0.229817 30:-0.527891 31:-0.301297 32:-0.795752 
0.2523256859491677 1:-0.815662 2:-0.927667 3:-0.9953 4:-0.998378 5:-0.999175 6:-0.999076 7:-0.997661 8:-0.994915 9:-0.984547 10:-0.989786 11:-0.991109 12:-0.990769 13:-0.989082 14:-0.965693 15:1 16:-0.337498 17:-0.939487 18:-0.973567 19:-0.97997 20:-0.962045 21:-0.78492 22:-0.802737 23:-0.809381 24:0.0761859 25:0.305581 26:-0.424352 27:-0.636481 28:-0.779233 29:-0.894328 30:-0.936458 31:-0.905168 32:-0.982347 
0.03071702984348993 1:-0.912075 2:-0.41983 3:-0.834634 4:-0.886133 5:-0.852924 6:0.256717 7:-0.281877 8:-0.948668 9:-0.912837 10:-0.929537 11:-0.967863 12:-0.989806 13:-0.993267 14:-0.993012 15:-0.989412 16:-0.98928 17:-0.956424 18:-0.886848 19:-0.7499 20:-0.526794 21:-0.505765 22:-0.624823 23:-0.303308 24:-0.241682 25:-0.536723 26:-0.763735 27:-0.915217 28:-0.956284 29:-0.984906 30:-0.9972 31:-0.9966 32:-0.999338 
0.3298114151901467 1:-0.562512 2:-0.180813 3:-0.723234 4:-0.86154 5:-0.95525 6:-0.975857 7:-0.961801 8:-0.982712 9:-0.961955 10:-0.887374 11:-0.864931 12:-0.929841 13:-0.949486 14:-0.937735 15:-0.961256 16:-0.956538 17:-0.453857 18:-0.456263 19:-0.721201 20:-0.829851 21:-0.840049 22:-0.858511 23:-0.83518 24:-0.783666 25:-0.68826 26:-0.757652 27:-0.851107 28:-0.937727 29:-0.985219 30:-0.993083 31:-0.991123 32:-0.997869 
0.353224096947332 1:-0.781968 2:-0.865977 3:-0.9886 4:-0.991206 5:-0.996499 6:-0.996451 7:-0.991621 8:-0.99045 9:-0.98161 10:-0.98416 11:-0.981308 12:-0.961027 13:-0.972753 14:-0.968384 15:-0.961928 16:0.653719 17:-0.984504 18:-0.962618 19:-0.899484 20:-0.858361 21:-0.845027 22:-0.863878 23:-0.86184 24:-0.871797 25:-0.888354 26:-0.92325 27:-0.877876 28:-0.822833 29:-0.674335 30:-0.487285 31:0.820291 32:-0.231368 
0.4707308173201529 1:-0.705488 2:-0.785982 3:-0.9179 4:-0.925114 5:-0.952518 6:-0.977067 7:-0.781511 8:-0.927756 9:-0.837378 10:-0.743971 11:-0.820732 12:-0.845553 13:-0.90427 14:-0.889879 15:-0.625351 16:-0.71355 17:-0.882901 18:-0.760264 19:-0.53688 20:-0.529385 21:-0.578946 22:-0.727641 23:-0.640582 24:-0.68452 25:-0.711534 26:-0.824779 27:-0.823741 28:-0.852189 29:-0.900769 30:-0.936198 31:-0.916228 32:-0.974515 
0.08047812441147288 1:-0.824006 2:-0.969813 3:-0.9917 4:-0.996457 5:-0.988206 6:-0.976428 7:-0.973103 8:-0.994342 9:-0.986444 10:0.141091 11:-0.581235 12:-0.923659 13:-0.948531 14:-0.934296 15:-0.929001 16:-0.910288 17:-0.981852 18:-0.984527 19:-0.938343 20:-0.882234 21:-0.676477 22:-0.271364 23:0.496296 24:-0.196281 25:-0.672246 26:-0.866938 27:-0.884498 28:-0.898463 29:-0.958088 30:-0.956858 31:-0.949631 32:-0.993408 
0.09578671825251564 1:-0.994973 2:-0.9815 3:-0.929534 4:-0.781487 5:-0.680974 6:-0.394896 7:1 8:-0.292848 9:-0.964167 10:-0.997388 11:-0.9996 12:-0.999839 13:-0.999841 14:-1 15:-0.998898 16:-0.999711 17:-0.894046 18:-0.591732 19:-0.316016 20:-0.3178 21:-0.316335 22:-0.676888 23:-0.810219 24:-0.919784 25:-0.953646 26:-0.983442 27:-0.990492 28:-0.997278 29:-0.999379 30:-0.999506 31:-0.999671 32:-1 
0.09283328575763933 1:-0.874566 2:-0.903943 3:-0.986534 4:-0.994792 5:-0.996963 6:-0.998862 7:-0.986552 8:-0.999557 9:-0.999639 10:-0.995513 11:-0.985499 12:-0.5265 13:0.534283 14:-0.213465 15:-0.830518 16:-0.931693 17:-0.830936 18:-0.887937 19:-0.912432 20:-0.764059 21:0.0917838 22:0.47273 23:-0.541083 24:-0.910645 25:-0.978884 26:-0.993443 27:-0.996341 28:-0.998252 29:-0.998754 30:-0.999615 31:-0.999888 32:-1 
0.5 1:-0.219404 2:-0.420372 3:-0.932166 4:-0.973187 5:-0.986612 6:-0.992757 7:-0.970279 8:-0.994562 9:-0.988838 10:-0.968186 11:-0.885371 12:-0.765599 13:-0.873579 14:-0.930851 15:-0.736258 16:-0.921878 17:-0.337986 18:-0.74814 19:-0.798727 20:-0.752302 21:-0.7671 22:-0.850529 23:-0.836335 24:-0.908045 25:-0.92913 26:-0.959224 27:-0.919667 28:-0.748041 29:-0.830773 30:-0.875936 31:-0.643817 32:-0.731131 
0.3011731339379238 1:-0.990409 2:-0.871241 3:0.264834 4:-0.447955 5:-0.932024 6:-0.976496 7:-0.96794 8:-0.980059 9:-0.913876 10:-0.992632 11:-0.990562 12:-0.987398 13:-0.994011 14:-0.991612 15:-0.994796 16:-0.995545 17:-0.971047 18:-0.540386 19:0.570936 20:-0.640399 21:-0.814199 22:-0.917736 23:-0.946 24:-0.970215 25:-0.98169 26:-0.984184 27:-0.972935 28:-0.961826 29:-0.974171 30:-0.995059 31:-0.998685 32:-0.999854 
0.02505826506489406 1:-0.904872 2:-0.936415 3:-0.996134 4:-0.99697 5:-0.997117 6:-0.996877 7:-0.98285 8:-0.991333 9:-0.970674 10:-0.833155 11:0.715286 12:-0.959662 13:-0.989982 14:-0.974726 15:-0.983044 16:-0.977654 17:-0.904767 18:-0.927597 19:-0.959687 20:-0.943999 21:-0.931797 22:-0.936315 23:-0.894738 24:-0.91343 25:-0.88727 26:-0.903208 27:-0.771345 28:-0.0515463 29:1 30:-0.614392 31:-0.898198 32:-0.986561 
-0.5 1:-0.963204 2:-0.881651 3:-0.935334 4:0.577448 5:-0.755748 6:-0.901515 7:-0.904692 8:-0.961356 9:-0.881388 10:-0.909644 11:-0.944543 12:-0.968011 13:-0.982508 14:-0.982469 15:-0.973313 16:-0.982978 17:-0.957087 18:-0.940681 19:-0.882955 20:-0.704701 21:-0.671014 22:-0.875914 23:-0.858032 24:-0.878127 25:-0.871795 26:-0.898216 27:-0.835498 28:-0.771651 29:-0.780969 30:-0.818076 31:-0.529396 32:0.623835 
-0.3032452738193067 1:-0.89956 2:-0.972096 3:-0.9691 4:0.59901 5:-0.894328 6:-0.965138 7:-0.942406 8:-0.979751 9:-0.965162 10:-0.796082 11:-0.874294 12:-0.915391 13:-0.966819 14:-0.974513 15:-0.979618 16:-0.968236 17:-0.989583 18:-0.972929 19:-0.902177 20:-0.772025 21:-0.688946 22:-0.769325 23:-0.686081 24:-0.824944 25:-0.858375 26:-0.8674 27:-0.408528 28:0.663243 29:-0.327537 30:-0.865972 31:-0.959002 32:-0.99572 
-0.2671968131430639 1:-0.954005 2:-0.985331 3:-0.9781 4:0.76518 5:-0.857042 6:-0.914721 7:-0.80987 8:-0.972631 9:-0.96819 10:-0.934629 11:-0.899326 12:-0.906922 13:-0.953035 14:-0.957305 15:-0.974906 16:-0.987251 17:-0.804115 18:-0.859854 19:-0.916994 20:-0.927944 21:-0.912571 22:-0.933086 23:-0.898201 24:-0.896277 25:-0.834478 26:-0.842172 27:-0.737893 28:-0.618384 29:-0.345394 30:-0.151118 31:-0.418197 32:-0.85078 
-0.5 1:-0.846862 2:-0.943381 3:0.049566 4:-0.8194 5:-0.956226 6:-0.975077 7:-0.919795 8:-0.981696 9:-0.965569 10:-0.868185 11:-0.702313 12:-0.906801 13:-0.9806 14:-0.970642 15:-0.987209 16:-0.998225 17:-0.437661 18:-0.914892 19:-0.858587 20:-0.768764 21:-0.0468906 22:0.0184431 23:-0.785701 24:-0.929272 25:-0.95374 26:-0.97826 27:-0.98134 28:-0.982912 29:-0.992182 30:-0.995145 31:-0.993832 32:-0.997635 
-0.5 1:-0.953684 2:-0.896628 3:-0.078034 4:0.0319354 5:-0.975334 6:-0.987931 7:-0.99006 8:-0.996108 9:-0.997018 10:-0.997253 11:-0.994462 12:-0.990126 13:-0.975775 14:-0.925586 15:-0.949321 16:-0.969614 17:-0.956431 18:-0.906917 19:-0.812937 20:-0.812055 21:-0.806641 22:-0.881408 23:-0.866551 24:-0.870378 25:-0.810383 26:-0.544919 27:0.569348 28:0.215752 29:-0.829485 30:-0.996485 31:-0.999231 32:-0.999704 
-0.5 1:-0.818088 2:-0.276326 3:-0.0075 4:-0.896208 5:-0.992275 6:-0.997371 7:-0.989083 8:-0.998453 9:-0.999729 10:-0.997287 11:-0.979378 12:-0.984869 13:-0.97795 14:-0.983224 15:-0.902618 16:-0.983122 17:-0.899635 18:-0.78291 19:-0.790081 20:-0.602243 21:-0.611512 22:-0.723367 23:-0.712001 24:-0.726795 25:-0.673157 26:-0.72199 27:-0.477548 28:-0.395227 29:-0.869829 30:-0.968548 31:-0.976032 32:-0.99144 
-0.5 1:-0.763429 2:-0.580478 3:0.063134 4:-0.831569 5:-0.981205 6:-0.993256 7:-0.972127 8:-0.998363 9:-0.998869 10:-0.976691 11:-0.949608 12:-0.957935 13:-0.966342 14:-0.988386 15:-0.897418 16:-0.987976 17:-0.754115 18:-0.757958 19:-0.739145 20:-0.685823 21:-0.609978 22:-0.738223 23:-0.70979 24:-0.706527 25:-0.654367 26:-0.765385 27:-0.66145 28:-0.698054 29:-0.873857 30:-0.950965 31:-0.934817 32:-0.970888 
-0.1068849164414964 1:-0.871357 2:-0.922443 3:-0.882566 4:0.154472 5:-0.915184 6:-0.957043 7:-0.929443 8:-0.968609 9:-0.932853 10:-0.644507 11:-0.960939 12:-0.977163 13:-0.979963 14:-0.955157 15:-0.916023 16:-0.846797 17:-0.990769 18:-0.953856 19:-0.870711 20:-0.796897 21:-0.708145 22:-0.763311 23:-0.600585 24:-0.607561 25:-0.413061 26:-0.0993688 27:-0.333944 28:-0.715019 29:-0.900139 30:-0.938889 31:-0.902537 32:-0.972618 
-0.5 1:-0.949369 2:-0.955648 3:-0.7889 4:0.548332 5:-0.937069 6:-0.96599 7:-0.937728 8:-0.958661 9:-0.894944 10:-0.915138 11:-0.94662 12:-0.940757 13:-0.942062 14:-0.928702 15:-0.944058 16:-0.960487 17:-0.711695 18:-0.863145 19:-0.856208 20:-0.848627 21:-0.825712 22:-0.87035 23:-0.884082 24:-0.899483 25:-0.87617 26:-0.885466 27:-0.831894 28:-0.820915 29:-0.851029 30:-0.86529 31:-0.306742 32:0.271686 
-0.5 1:-0.766138 2:-0.937344 3:-0.9457 4:0.249679 5:-0.441512 6:-0.971669 7:-0.950691 8:-0.981475 9:-0.952059 10:-0.868251 11:-0.948552 12:-0.967809 13:-0.973867 14:-0.968493 15:-0.970867 16:-0.98975 17:-0.775118 18:-0.939059 19:-0.867742 20:-0.802812 21:-0.867318 22:-0.915352 23:-0.809461 24:-0.201671 25:0.588001 26:-0.441392 27:-0.817601 28:-0.972503 29:-0.996654 30:-0.998024 31:-0.999231 32:-0.999704 
-0.5 1:-0.874994 2:-0.333024 3:0.116 4:-0.853043 5:-0.996345 6:-0.999859 7:-0.992691 8:-1 9:-1 10:-0.997589 11:-0.988267 12:-0.986834 13:-0.983993 14:-0.988496 15:-0.95783 16:-0.986599 17:-0.903986 18:-0.776262 19:-0.834668 20:-0.667763 21:-0.583038 22:-0.764676 23:-0.732535 24:-0.672454 25:-0.58946 26:-0.707395 27:-0.530542 28:-0.440768 29:-0.781804 30:-0.949163 31:-0.962658 32:-0.988652 
-0.5 1:-0.989447 2:-0.934053 3:-0.099666 4:-0.955811 5:-0.979091 6:-0.987505 7:-0.986552 8:-0.989566 9:-0.955041 10:-0.786638 11:-0.322134 12:-0.902026 13:-0.986588 14:-0.991076 15:-0.990022 16:-0.996777 17:-0.896411 18:-0.699089 19:-0.801265 20:-0.934342 21:-0.904342 22:-0.883684 23:-0.705977 24:-0.488685 25:-0.407548 26:-0.526265 27:-0.424921 28:-0.429141 29:-0.819735 30:-0.969909 31:-0.991123 32:-0.999779 
-0.4896329680441388 1:-0.972867 2:-0.937188 3:0.189034 4:-0.741312 5:-0.897828 6:-0.929207 7:-0.901085 8:-0.943275 9:-0.91618 10:-0.898561 11:-0.93937 12:-0.942884 13:-0.942858 14:-0.92978 15:-0.969152 16:-0.985477 17:-0.601931 18:-0.887597 19:-0.910165 20:-0.908765 21:-0.888167 22:-0.915709 23:-0.884501 24:-0.862057 25:-0.809398 26:-0.820411 27:-0.701611 28:-0.611344 29:-0.627214 30:-0.668523 31:-0.260496 32:-0.565943 
-0.5 1:-0.90448 2:-0.851736 3:0.432466 4:-0.819016 5:-0.977599 6:-0.993256 7:-0.969303 8:-0.995403 9:-0.989381 10:-0.931313 11:-0.959483 12:-0.963474 13:-0.980227 14:-0.982366 15:-0.98231 16:-0.992974 17:-0.933143 18:-0.955612 19:-0.917646 20:-0.923158 21:-0.865876 22:-0.89286 23:-0.856748 24:-0.853476 25:-0.818825 26:-0.854192 27:-0.730915 28:-0.575309 29:-0.0469903 30:-0.181683 31:-0.24747 32:-0.941428 
-0.5 1:-0.855419 2:-0.957118 3:-0.917766 4:0.531082 5:-0.88964 6:-0.962582 7:-0.955463 8:-0.952692 9:-0.775337 10:-0.850603 11:-0.939624 12:-0.977524 13:-0.993798 14:-0.959028 15:-0.995531 16:-0.996703 17:-0.632105 18:-0.898396 19:-0.933816 20:-0.843894 21:-0.466677 22:-0.692841 23:-0.650488 24:-0.364604 25:-0.199126 26:-0.673338 27:-0.894796 28:-0.949838 29:-0.969294 30:-0.966763 31:-0.964361 32:-0.989323 
-0.5 1:-0.96791 2:-0.89152 3:0.4549 4:-0.937067 5:-0.965292 6:-0.970744 7:-0.964724 8:-0.985542 9:-0.928426 10:-0.782786 11:-0.983785 12:-0.9939 13:-0.992421 14:-0.952363 15:-0.994737 16:-0.997755 17:-0.8006 18:-0.915224 19:-0.915048 20:-0.959295 21:-0.961036 22:-0.964166 23:-0.945372 24:-0.918209 25:-0.638081 26:-0.32754 27:-0.311411 28:0.162105 29:-0.460914 30:-0.806498 31:-0.845113 32:-0.945179 
-0.5 1:-0.960851 2:-0.971283 3:-0.9089 4:-0.136665 5:-0.968122 6:-0.986295 7:-0.983821 8:-0.992837 9:-0.98572 10:-0.953015 11:-0.85112 12:-0.744647 13:-0.243699 14:-0.617379 15:-0.847899 16:-0.942485 17:-0.746839 18:-0.619936 19:-0.637997 20:-0.761528 21:-0.450992 22:-0.729902 23:-0.839011 24:-0.825152 25:-0.19197 26:-0.757968 27:-0.97412 28:-0.998252 29:-0.998287 30:-1 31:-1 32:-1 
-0.5 1:-0.952614 2:-0.98003 3:-0.929366 4:1 5:-0.876508 6:-0.968827 7:-0.938605 8:-0.983465 9:-0.977452 10:-0.971031 11:-0.943013 12:-0.963395 13:-0.974716 14:-0.953331 15:-0.972336 16:-0.994639 17:-0.692517 18:-0.953213 19:-0.94306 20:-0.936958 21:-0.911948 22:-0.932938 23:-0.920919 24:-0.9142 25:-0.886993 26:-0.826713 27:-0.163824 28:0.50001 29:-0.101318 30:-0.851547 31:-0.969726 32:-0.991771 
-0.09788008009223785 1:-0.504038 2:-0.952669 3:-0.940866 4:0.124115 5:-0.910858 6:-0.972521 7:-0.919211 8:-0.949907 9:-0.881342 10:-0.944507 11:-0.898014 12:-0.907926 13:-0.954733 14:-0.927844 15:-0.965296 16:-0.955958 17:-0.515604 18:-0.851337 19:-0.893273 20:-0.897118 21:-0.884862 22:-0.823819 23:-0.539221 24:-0.615314 25:-0.752568 26:-0.64631 27:-0.0484595 28:-0.642932 29:-0.986077 30:-0.999779 31:-1 32:-1 
-0.4403726949979329 1:-0.936713 2:-0.980302 3:-0.926434 4:0.662796 5:-0.798953 6:-0.944403 7:-0.897775 8:-0.977231 9:-0.969004 10:-0.921433 11:-0.853234 12:-0.935177 13:-0.969999 14:-0.947736 15:-0.973496 16:-0.994496 17:-0.71732 18:-0.919861 19:-0.889321 20:-0.883777 21:-0.852762 22:-0.909873 23:-0.874809 24:-0.895384 25:-0.815475 26:-0.728243 27:0.401072 28:0.34767 29:-0.800959 30:-0.970676 31:-0.97859 32:-0.992367 
-0.5 1:-0.941988 2:-0.998955 3:-0.970566 4:-0.0366745 5:-0.888611 6:-0.972521 7:-0.930905 8:-0.987664 9:-0.862906 10:-0.583924 11:-0.5045 12:-0.915189 13:-0.992367 14:-0.9986 15:-0.998164 16:-0.99982 17:-0.782245 18:-0.539961 19:-0.864439 20:-0.897866 21:-0.830347 22:-0.817597 23:-0.669485 24:-0.359106 25:-0.221613 26:-0.739249 27:-0.814276 28:-0.87303 29:-0.977639 30:-0.959915 31:-0.989729 32:-0.996475 
-0.5 1:-0.832208 2:-0.90437 3:-0.924466 4:0.670994 5:-0.900455 6:-0.976002 7:-0.974273 8:-0.986914 9:-0.982424 10:-0.978164 11:-0.958316 12:-0.927471 13:-0.940685 14:-0.920314 15:-0.948035 16:-0.931656 17:-0.928636 18:-0.868494 19:-0.861203 20:-0.846813 21:-0.834391 22:-0.890844 23:-0.86016 24:-0.863254 25:-0.849418 26:-0.859865 27:-0.710834 28:-0.607561 29:0.166016 30:-0.284536 31:-0.840728 32:-0.970072 
-0.5 1:-0.986914 2:-0.985487 3:-0.991734 4:-0.564896 5:1 6:-0.80161 7:-0.857816 8:-0.949021 9:-0.920474 10:-0.934896 11:-0.981892 12:-0.993016 13:-0.997033 14:-0.997632 15:-0.996816 16:-0.997429 17:-0.993005 18:-0.94424 19:-0.795505 20:-0.804192 21:-0.823803 22:-0.816094 23:-0.747715 24:-0.730062 25:-0.618544 26:-0.577483 27:-0.307362 28:0.0465575 29:-0.491078 30:-0.869526 31:-0.965472 32:-0.99625 
-0.5 1:-0.827108 2:-0.784551 3:-0.3199 4:-0.266074 5:-0.960296 6:-0.987786 7:-0.984897 8:-0.98824 9:-0.979349 10:-0.912994 11:-0.946438 12:-0.889623 13:-0.960563 14:-0.937845 15:-0.953728 16:-0.953859 17:-0.81665 18:-0.639852 19:-0.513016 20:-0.627668 21:-0.636899 22:-0.723367 23:-0.691411 24:-0.753578 25:-0.703631 26:-0.763483 27:-0.842066 28:-0.901203 29:-0.951455 30:-0.984241 31:-0.979616 32:-0.995072 
-0.3055287719456352 1:-0.99401 2:-0.982197 3:-0.969666 4:0.86359 5:-0.661508 6:-0.884618 7:-0.895144 8:-0.953621 9:-0.937915 10:-0.936001 11:-0.969356 12:-0.989163 13:-0.999046 14:-0.99871 15:-0.99798 16:-0.998877 17:-0.974184 18:-0.854846 19:-0.887668 20:-0.876831 21:-0.851584 22:-0.867036 23:-0.752556 24:-0.600493 25:-0.377366 26:-0.285567 27:0.0394836 28:-0.354174 29:-0.872452 30:-0.991432 31:-0.989696 32:-0.997057 
-0.5 1:0.631077 2:-0.887728 3:-0.964466 4:-0.97767 5:-0.98079 6:-0.982886 7:-0.918433 8:-0.985144 9:-0.978764 10:-0.954622 11:-0.971033 12:-0.97684 13:-0.969999 14:-0.954724 15:-0.935061 16:-0.901053 17:-0.839219 18:-0.853557 19:-0.860099 20:-0.888922 21:-0.870632 22:-0.911093 23:-0.884851 24:-0.907023 25:-0.865045 26:-0.909089 27:-0.872433 28:-0.861111 29:-0.855897 30:-0.798203 31:-0.0870732 32:0.521888 
-0.5 1:-0.210703 2:-0.399821 3:-0.9863 4:-0.994705 5:-0.991348 6:-0.995101 7:-0.978559 8:-0.987619 9:-0.91374 10:-0.707569 11:-0.88763 12:-0.92711 13:-0.96035 14:-0.879555 15:-0.951586 16:-0.895583 17:-0.83746 18:-0.891106 19:-0.742801 20:-0.730988 21:-0.807282 22:-0.879132 23:-0.899435 24:-0.931201 25:-0.956264 26:-0.969103 27:-0.958566 28:-0.936806 29:-0.797799 30:-0.266926 31:0.679233 32:-0.848437 
-0.1547089831128428 1:-0.297275 2:-0.601958 3:-0.559566 4:-0.983861 5:-0.995622 6:-0.997018 7:-0.994931 8:-0.992219 9:-0.988342 10:-0.924112 11:-0.814976 12:-0.900419 13:-0.940103 14:-0.92365 15:-0.942831 16:-0.883994 17:-0.981632 18:-0.914412 19:-0.747638 20:-0.596832 21:-0.803577 22:-0.897242 23:-0.892364 24:-0.824732 25:-0.572952 26:-0.732103 27:-0.733724 28:-0.76637 29:-0.834012 30:-0.848744 31:-0.579587 32:0.00633368 
-0.5 1:-0.251742 2:-0.623283 3:-0.779966 4:-0.676842 5:-0.941191 6:-0.961798 7:-0.82761 8:-0.91007 9:-0.967149 10:-0.976657 11:-0.901075 12:-0.911057 13:-0.966819 14:-0.956879 15:-0.958502 16:-0.943246 17:-0.8723 18:-0.800827 19:-0.760437 20:-0.706177 21:-0.655325 22:-0.703185 23:-0.458221 24:-0.451894 25:-0.515612 26:-0.662061 27:-0.654625 28:-0.844391 29:-0.952081 30:-0.993356 31:-0.998139 32:-1 
-0.5 1:0.529389 2:-0.645691 3:-0.882534 4:-0.974127 5:-0.993357 6:-0.990627 7:-0.993083 8:-0.999249 9:-0.998869 10:-0.997121 11:-0.996356 12:-0.99691 13:-0.99258 14:-0.987095 15:-0.940018 16:-0.929592 17:-0.992328 18:-1 19:-0.999793 20:-0.998048 21:-0.992402 22:-0.993826 23:-0.972339 24:-0.93096 25:-0.870232 26:-0.894733 27:-0.872362 28:-0.792072 29:-0.72771 30:-0.3921 31:0.563405 32:0.67679 
-0.5 1:0.508317 2:-0.973644 3:-0.991134 4:-0.994877 5:-0.994438 6:-0.979764 7:-0.982751 8:-0.991113 9:-0.950929 10:-0.867482 11:-0.890472 12:-0.906079 13:-0.933425 14:-0.936335 15:-0.939589 16:-0.904565 17:-0.782797 18:-0.830547 19:-0.86604 20:-0.916222 21:-0.932736 22:-0.946138 23:-0.930336 24:-0.920578 25:-0.908905 26:-0.908091 27:-0.644145 28:-0.15394 29:0.372063 30:-0.586999 31:-0.954951 32:-0.987633 
-0.4275006512124527 1:-0.0123898 2:-0.763497 3:-0.9397 4:-0.954958 5:-0.964312 6:-0.975716 7:-0.932174 8:-0.969758 9:-0.924495 10:-0.961285 11:-0.88559 12:-0.860402 13:-0.865946 14:-0.763201 15:-0.795876 16:-0.876858 17:-0.627774 18:-0.703917 19:-0.765248 20:-0.811254 21:-0.779239 22:-0.873471 23:-0.880344 24:-0.875267 25:-0.865243 26:-0.913306 27:-0.879176 28:-0.851577 29:-0.85208 30:-0.840384 31:-0.355388 32:-0.428601 
-0.5 1:0.0299685 2:-0.48094 3:-0.897466 4:-0.788191 5:-0.992275 6:-0.994815 7:-0.984213 8:-0.992394 9:-0.980933 10:-0.988044 11:-0.970524 12:-0.93891 13:-0.914342 14:-0.881813 15:-0.919879 16:-0.928542 17:-0.905228 18:-0.863696 19:-0.933581 20:-0.951195 21:-0.945053 22:-0.946718 23:-0.925006 24:-0.949304 25:-0.938449 26:-0.961596 27:-0.924983 28:-0.873916 29:-0.808706 30:-0.708164 31:0.994615 32:0.350797 
-0.2207469774591777 1:0.05785 2:-0.521653 3:-0.886834 4:-0.81701 5:-0.991966 6:-0.99496 7:-0.980219 8:-0.988505 9:-0.982966 10:-0.988948 11:-0.974749 12:-0.931486 13:-0.908458 14:-0.871709 15:-0.920797 16:-0.91746 17:-0.899385 18:-0.839969 19:-0.929597 20:-0.934522 21:-0.925979 22:-0.933685 23:-0.924303 24:-0.936232 25:-0.929244 26:-0.949913 27:-0.916172 28:-0.842584 29:-0.759046 30:-0.678722 31:1 32:0.0702882 
-0.5 1:-0.238337 2:-0.303146 3:-0.921866 4:-0.947785 5:-0.966012 6:-0.964712 7:-0.912393 8:-0.93421 9:-0.808413 10:-0.902177 11:-0.947897 12:-0.960746 13:-0.964007 14:-0.937948 15:-0.942894 16:-0.936148 17:-0.455964 18:-0.811773 19:-0.819616 20:-0.774199 21:-0.752407 22:-0.827635 23:-0.828663 24:-0.867598 25:-0.890368 26:-0.885487 27:-0.744746 28:-0.491705 29:-0.591701 30:-0.792057 31:-0.895324 32:-0.98919 
-0.256136495459078 1:-0.641452 2:-0.911374 3:-0.8649 4:-0.587483 5:-0.963129 6:-0.983525 7:-0.935781 8:-0.857146 9:-0.694502 10:-0.937675 11:-0.984406 12:-0.988279 13:-0.983516 14:-0.927089 15:-0.935365 16:-0.358433 17:-0.881626 18:-0.946137 19:-0.928533 20:-0.908758 21:-0.825605 22:-0.817377 23:-0.743055 24:-0.804265 25:-0.822848 26:-0.831551 27:-0.663902 28:-0.509679 29:-0.361085 30:-0.526688 31:-0.455526 32:-0.581086 
-0.5 1:-0.593603 2:0.266265 3:-0.864334 4:-0.867901 5:-0.954168 6:-0.978839 7:-0.980412 8:-0.988373 9:-0.945867 10:-0.961922 11:-0.959665 12:-0.973468 13:-0.980918 14:-0.970532 15:-0.976497 16:-0.92952 17:-0.957897 18:-0.926734 19:-0.865336 20:-0.872115 21:-0.849012 22:-0.852084 23:-0.797204 24:-0.786512 25:-0.747015 26:-0.811275 27:-0.755033 28:-0.723161 29:-0.73845 30:-0.781344 31:-0.182616 32:0.152814 
-0.5 1:-0.609861 2:-0.89001 3:-0.909534 4:-0.608745 5:-0.999589 6:-0.999502 7:-0.998831 8:-0.994517 9:-0.988613 10:-0.637976 11:-0.929167 12:-0.975236 13:-0.973498 14:-0.962254 15:-0.955196 16:-0.312544 17:-0.978179 18:-0.978647 19:-0.963877 20:-0.937879 21:-0.884186 22:-0.879976 23:-0.631364 24:-0.366278 25:-0.446707 26:-0.160364 27:-0.257353 28:-0.465922 29:-0.605511 30:-0.864111 31:-0.96778 32:-0.996911 
-0.5 1:0.583086 2:-0.864003 3:-0.918666 4:-0.895439 5:-0.989133 6:-0.992472 7:-0.913855 8:-0.990893 9:-0.991506 10:-0.983959 11:-0.958353 12:-0.959782 13:-0.975988 14:-0.961719 15:-0.937631 16:-0.958348 17:-0.80119 18:-0.870254 19:-0.917491 20:-0.939315 21:-0.925 22:-0.919016 23:-0.848629 24:-0.815219 25:-0.797239 26:-0.766557 27:-0.153257 28:0.23914 29:-0.228137 30:-0.846099 31:-0.967366 32:-0.992332 
-0.5 1:-0.214377 2:-0.609428 3:-0.9458 4:-0.964564 5:-0.973066 6:-0.978626 7:-0.946791 8:-0.956449 9:-0.909042 10:-0.716778 11:-0.861433 12:-0.959301 13:-0.964911 14:-0.942142 15:-0.93653 16:-0.799387 17:-0.715755 18:-0.857843 19:-0.776196 20:-0.549764 21:-0.437131 22:-0.718558 23:-0.7629 24:-0.826098 25:-0.835621 26:-0.844549 27:-0.769293 28:-0.587472 29:-0.616895 30:-0.904802 31:-0.983121 32:-0.999043 
-0.5 1:0.10709 2:-0.692634 3:-0.951866 4:-0.960678 5:-0.973529 6:-0.979265 7:-0.954586 8:-0.959059 9:-0.899057 10:-0.803617 11:-0.938349 12:-0.966164 13:-0.959504 14:-0.921392 15:-0.936651 16:-0.881132 17:-0.677659 18:-0.863976 19:-0.806941 20:-0.789697 21:-0.638105 22:-0.667835 23:-0.699963 24:-0.752174 25:-0.796269 26:-0.837375 27:-0.748795 28:-0.411336 29:-0.576112 30:-0.876246 31:-0.952433 32:-0.99809 
-0.5 1:-0.570748 2:-0.302178 3:-0.948934 4:-0.960806 5:-0.977135 6:-0.981395 7:-0.946891 8:-0.960075 9:-0.897609 10:-0.887139 11:-0.947057 12:-0.97062 13:-0.973549 14:-0.914075 15:-0.689864 16:-0.59653 17:-0.686452 18:-0.884828 19:-0.631455 20:-0.511071 21:-0.617086 22:-0.849499 23:-0.872719 24:-0.901785 25:-0.890353 26:-0.901558 27:-0.870294 28:-0.767478 29:-0.483312 30:-0.646542 31:-0.857265 32:-0.991542 
-0.5 1:0.215697 2:-0.829096 3:-0.985834 4:-0.989113 5:-0.992019 6:-0.992331 7:-0.982652 8:-0.989654 9:-0.984322 10:-0.984763 11:-0.986081 12:-0.970017 13:-0.91466 14:-0.610281 15:-0.626026 16:-0.751616 17:-0.860385 18:-0.644182 19:-0.791162 20:-0.815225 21:-0.698252 22:-0.649357 23:-0.599314 24:-0.653193 25:-0.778642 26:-0.864415 27:-0.826138 28:-0.839594 29:-0.801505 30:-0.879659 31:-0.782271 32:-0.737025 
-0.3617300152133312 1:0.395933 2:-0.973684 3:-0.998066 4:-0.999103 5:-0.99933 6:-0.999289 7:-0.996784 8:-0.996729 9:-0.978853 10:-0.89424 11:-0.84642 12:-0.848963 13:-0.896424 14:-0.882355 15:-0.905373 16:-0.863747 17:-0.937221 18:-0.704027 19:-0.610933 20:-0.82605 21:-0.907211 22:-0.94105 23:-0.857706 24:-0.67783 25:-0.496188 26:-0.713498 27:-0.805191 28:-0.829057 29:-0.793678 30:-0.821489 31:-0.631422 32:-0.512887 
-0.5 1:-0.610075 2:-0.863618 3:-0.910166 4:-0.652422 5:-0.993255 6:-0.992259 7:-0.957316 8:-0.962243 9:-0.9296 10:-0.739183 11:-0.872801 12:-0.948543 13:-0.95855 14:-0.933974 15:-0.935303 16:-0.398779 17:-0.934294 18:-0.922297 19:-0.86285 20:-0.866761 21:-0.804782 22:-0.774592 23:-0.618344 24:-0.608606 25:-0.568547 26:-0.426022 27:-0.257012 28:-0.452436 29:-0.596265 30:-0.915284 31:-0.971508 32:-0.997869 
-0.3895931071668288 1:0.280374 2:-0.786061 3:-0.961066 4:-0.964093 5:-0.975436 6:-0.970037 7:-0.916971 8:-0.908656 9:-0.793276 10:-0.908407 11:-0.962216 12:-0.974673 13:-0.969891 14:-0.955157 15:-0.960033 16:-0.923218 17:-0.583361 18:-0.775936 19:-0.808625 20:-0.815468 21:-0.700249 22:-0.720786 23:-0.799205 24:-0.86305 25:-0.875294 26:-0.895171 27:-0.81364 28:-0.33588 29:-0.433769 30:-0.89629 31:-0.97304 32:-0.999193 
-0.5 1:-0.648191 2:-0.781958 3:-0.8301 4:-0.540388 5:-0.969309 6:-0.981114 7:-0.963356 8:-0.975947 9:-0.9662 10:-0.894039 11:-0.972854 12:-0.976801 13:-0.988655 14:-0.98505 15:-0.984209 16:-0.239094 17:-0.914321 18:-0.906477 19:-0.908322 20:-0.917313 21:-0.901423 22:-0.704189 23:-0.630643 24:-0.497971 25:-0.435122 26:-0.512351 27:-0.520721 28:-0.630769 29:-0.736657 30:-0.788862 31:-0.756587 32:-0.879777 
-0.5 1:0.101956 2:-0.840706 3:-0.990366 4:-0.992784 5:-0.994386 6:-0.994888 7:-0.991621 8:-0.993501 9:-0.982603 10:-0.978365 11:-0.962107 12:-0.887254 13:-0.782514 14:-0.631787 15:-0.76827 16:-0.713407 17:-0.936915 18:-0.690225 19:-0.628865 20:-0.810495 21:-0.784577 22:-0.683189 23:-0.552423 24:-0.618865 25:-0.708396 26:-0.840327 27:-0.774099 28:-0.801414 29:-0.869713 30:-0.921127 31:-0.804049 32:-0.705337 
-0.5 1:-0.591179 2:0.202292 3:-0.853434 4:-0.861625 5:-0.930426 6:-0.972947 7:-0.967256 8:-0.982359 9:-0.951696 10:-0.962459 11:-0.95839 12:-0.976399 13:-0.977842 14:-0.96688 15:-0.968968 16:-0.919959 17:-0.936239 18:-0.91034 19:-0.841627 20:-0.852954 21:-0.827496 22:-0.838794 23:-0.790188 24:-0.779643 25:-0.779726 26:-0.811486 27:-0.749552 28:-0.73885 29:-0.769818 30:-0.790627 31:-0.231794 32:0.0725693 
-0.5 1:0.0828457 2:-0.784744 3:-0.929834 4:-0.941678 5:-0.960759 6:-0.965845 7:-0.93529 8:-0.93138 9:-0.702093 10:-0.884897 11:-0.967572 12:-0.968693 13:-0.969999 14:-0.95064 15:-0.942648 16:-0.874107 17:-0.751597 18:-0.819586 19:-0.768789 20:-0.706844 21:-0.601148 22:-0.715296 23:-0.698231 24:-0.768386 25:-0.768537 26:-0.793492 27:-0.632081 28:-0.500663 29:-0.728718 30:-0.903415 31:-0.93577 32:-0.998676 
-0.1792299682736187 1:-0.587435 2:-0.235883 3:-0.116866 4:-0.978438 5:-0.991555 6:-0.994036 7:-0.989183 8:-0.996817 9:-0.995074 10:-0.993102 11:-0.991255 12:-0.993016 13:-0.992844 14:-0.99118 15:-0.992409 16:-0.9933 17:-0.946832 18:-0.955918 19:-0.885487 20:-0.849457 21:-0.807242 22:-0.871655 23:-0.860974 24:-0.822127 25:-0.717665 26:-0.645191 27:-0.212895 28:0.277407 29:-0.302273 30:-0.832768 31:-0.912559 32:-0.98206 
-0.5 1:-0.582906 2:-0.117072 3:-0.790766 4:-0.968535 5:-0.977444 6:-0.974438 7:-0.954685 8:-0.969625 9:-0.903484 10:-0.867381 11:-0.891309 12:-0.928035 13:-0.951394 14:-0.932361 15:-0.943324 16:-0.884826 17:-0.74061 18:-0.78566 19:-0.844952 20:-0.870615 21:-0.839569 22:-0.847576 23:-0.79361 24:-0.789987 25:-0.767092 26:-0.779242 27:-0.686452 28:-0.548406 29:-0.558932 30:-0.783222 31:-0.620539 32:-0.740895 
-0.3791236783699097 1:-0.274598 2:-0.721196 3:-0.774034 4:-0.988173 5:-0.995365 6:-0.995101 7:-0.979728 8:-0.989919 9:-0.981789 10:-0.98848 11:-0.982001 12:-0.933251 13:-0.934007 14:-0.906332 15:-0.916452 16:-0.333043 17:-0.987053 18:-0.933464 19:-0.848623 20:-0.823 21:-0.824911 22:-0.87854 23:-0.866076 24:-0.81928 25:-0.760575 26:-0.766123 27:-0.251691 28:0.038474 29:-0.166646 30:-0.679496 31:-0.884521 32:-0.979175 
-0.5 1:-0.687805 2:-0.812028 3:-0.7542 4:-0.999531 5:-0.99928 6:-0.999076 7:-0.994545 8:-0.995888 9:-0.983915 10:-0.691761 11:-0.815413 12:-0.934135 13:-0.939308 14:-0.886549 15:-0.859409 16:-0.345829 17:-0.992726 18:-0.965336 19:-0.918997 20:-0.836059 21:-0.704773 22:-0.67318 23:-0.459227 24:-0.415253 25:-0.264963 26:-0.298163 27:-0.301936 28:-0.668674 29:-0.979697 30:-0.998574 31:-0.999783 32:-1 
-0.2742117097620674 1:0.313319 2:-0.568095 3:-0.824234 4:-0.997438 5:-0.998094 6:-0.998794 7:-0.999807 8:-0.999735 9:-0.999818 10:-1 11:-0.999963 12:-0.999116 13:-0.99597 14:-0.991289 15:-0.98231 16:-0.777693 17:-0.978697 18:-0.924775 19:-0.91777 20:-0.911087 21:-0.861308 22:-0.809001 23:-0.561952 24:-0.594214 25:-0.647943 26:-0.636788 27:-0.1181 28:-0.109256 29:-0.550694 30:-0.846059 31:-0.892891 32:-0.989261 
-0.5 1:-0.0635192 2:-0.671775 3:-0.815266 4:-0.99936 5:-0.999589 6:-0.999646 7:-0.999901 8:-0.999822 9:-0.998598 10:-0.620629 11:-0.918018 12:-0.980173 13:-0.983198 14:-0.9729 15:-0.970253 16:-0.836258 17:-0.979859 18:-0.864448 19:-0.729252 20:-0.742293 21:-0.698768 22:-0.570649 23:-0.285437 24:-0.423839 25:-0.55817 26:-0.635158 27:-0.570407 28:-0.803985 29:-0.975651 30:-0.998188 31:-1 32:-1 
-0.5 1:0.332717 2:-0.909207 3:-0.9931 4:-0.994961 5:-0.99619 6:-0.996877 7:-0.985382 8:-0.993899 9:-0.97962 10:-0.899632 11:-0.949462 12:-0.936423 13:-0.963956 14:-0.925153 15:-0.931998 16:-0.614675 17:-0.926011 18:-0.949376 19:-0.900754 20:-0.881793 21:-0.790556 22:-0.54112 23:-0.228169 24:-0.439672 25:-0.551653 26:-0.788363 27:-0.689705 28:-0.565331 29:-0.664636 30:-0.836197 31:-0.891925 32:-0.97925 
-0.5 1:0.7589 2:-0.888617 3:-0.9941 4:-0.999915 5:-1 6:-1 7:-0.999515 8:-1 9:-0.999954 10:-0.9999 11:-0.999744 12:-0.994141 13:-0.978691 14:-0.913752 15:-0.891847 16:-0.837779 17:-0.923282 18:-0.867785 19:-0.73778 20:-0.737472 21:-0.701437 22:-0.750858 23:-0.654901 24:-0.36025 25:-0.0533241 26:-0.444291 27:-0.73244 28:-0.952501 29:-0.990819 30:-0.997365 31:-0.998685 32:-1 
-0.5 1:-0.630685 2:-0.647742 3:-0.309066 4:-0.950003 5:-0.991759 6:-0.996451 7:-0.994638 8:-0.995756 9:-0.992002 10:-0.985599 11:-0.83414 12:-0.942725 13:-0.977632 14:-0.960105 15:-0.945465 16:-0.637457 17:-0.874579 18:-0.717745 19:-0.846688 20:-0.821479 21:-0.814577 22:-0.685257 23:-0.343058 24:-0.647619 25:-0.72196 26:-0.7923 27:-0.742398 28:-0.704529 29:-0.794056 30:-0.860161 31:-0.733283 32:-0.906718 
-0.5 1:0.104416 2:-0.980766 3:-0.990534 4:-0.989925 5:-0.986868 6:-0.988212 7:-0.965602 8:-0.991113 9:-0.976324 10:-0.670999 11:-0.814064 12:-0.930322 13:-0.937451 14:-0.886549 15:-0.861487 16:-0.806306 17:-0.938404 18:-0.761389 19:-0.456665 20:-0.74163 21:-0.700979 22:-0.796916 23:-0.846953 24:-0.903369 25:-0.89308 26:-0.90846 27:-0.827856 28:-0.692086 29:-0.46069 30:-0.576148 31:-0.731416 32:-0.997353 
-0.5 1:0.0304327 2:-0.772862 3:-0.790534 4:-0.996114 5:-0.998146 6:-0.998794 7:-0.996784 8:-0.997878 9:-0.996158 10:-0.989618 11:-0.908873 12:-0.821911 13:-0.901512 14:-0.905796 15:-0.947852 16:-0.71739 17:-0.977027 18:-0.989295 19:-0.976285 20:-0.950098 21:-0.918643 22:-0.909631 23:-0.87763 24:-0.87556 25:-0.861146 26:-0.880328 27:-0.851146 28:-0.870891 29:-0.749268 30:0.513163 31:0.243459 32:-0.748157 
-0.2522848327395653 1:0.628155 2:-0.944463 3:-0.928766 4:-0.964052 5:-0.99624 6:-0.996664 7:-0.991913 8:-0.994076 9:-0.98771 10:-0.985498 11:-0.976461 12:-0.941841 13:-0.941585 14:-0.900312 15:-0.905373 16:-0.88374 17:-0.974207 18:-0.980585 19:-0.961069 20:-0.933273 21:-0.889947 22:-0.897056 23:-0.857139 24:-0.86288 25:-0.84007 26:-0.891679 27:-0.887856 28:-0.831965 29:-0.591607 30:-0.596575 31:0.143254 32:0.505916 
-0.5 1:0.481933 2:-0.798251 3:-0.8547 4:-0.82653 5:-1 6:-1 7:-1 8:-1 9:-0.988884 10:-0.874983 11:-0.99162 12:-0.995263 13:-0.995388 14:-0.994083 15:-0.993511 16:-0.991779 17:-0.999473 18:-0.99729 19:-0.988615 20:-0.975104 21:-0.938363 22:-0.92179 23:-0.89916 24:-0.883522 25:-0.904961 26:-0.930525 27:-0.548444 28:1 29:0.380342 30:-0.68925 31:-0.699294 32:-0.962166 
-0.5 1:0.491808 2:-0.848794 3:-0.9966 4:-0.994492 5:-0.992893 6:-0.993397 7:-0.981482 8:-0.983375 9:-0.832905 10:-0.93694 11:-0.957079 12:-0.907685 13:-0.951127 14:-0.942039 15:-0.948953 16:-0.932237 17:-0.954752 18:-0.838736 19:-0.739501 20:-0.845934 21:-0.896619 22:-0.926005 23:-0.926319 24:-0.920583 25:-0.904867 26:-0.892794 27:-0.809887 28:-0.799713 29:-0.668506 30:0.326371 31:-0.439679 32:-0.937104 
-0.5 1:0.822367 2:-0.953018 3:-0.995734 4:-0.997651 5:-0.999228 6:-0.999007 7:-0.997562 8:-0.999602 9:-0.999005 10:-0.998459 11:-0.998179 12:-0.990649 13:-0.969786 14:-0.903106 15:-0.938854 16:-0.833107 17:-0.931552 18:-0.937872 19:-0.909449 20:-0.885559 21:-0.861263 22:-0.881322 23:-0.845091 24:-0.731731 25:-0.40498 26:-0.542219 27:-0.213675 28:0.100036 29:-0.543964 30:-0.84546 31:-0.954938 32:-0.988422 
-0.5 1:-0.656605 2:-0.822285 3:-0.817034 4:-0.892068 5:-1 6:-1 7:-1 8:-1 9:-0.999911 10:-0.911722 11:-0.669485 12:-0.926067 13:-0.94392 14:-0.902893 15:-0.87881 16:-0.265931 17:-0.99965 18:-0.999197 19:-0.994579 20:-0.960647 21:-0.834715 22:-0.638165 23:-0.685224 24:-0.75007 25:-0.770116 26:-0.738645 27:-0.036296 28:0.296477 29:-0.326967 30:-0.819651 31:-0.893207 32:-0.967888 
